tree
version=v4
num_class=5
num_tree_per_iteration=5
label_index=0
max_feature_idx=17
objective=multiclass num_class:5
average_output
feature_names=Type Age Breed1 Breed2 Gender MaturitySize FurLength Health Quantity State Care ColorPattern HasName DescLength PhotoDescCombo FeeZero IsBaby RescuerListingCount
feature_infos=[1:2] [0:255] [0:307] [0:307] [1:3] [1:4] [1:3] [1:3] [1:20] [41324:41415] [0:3] [0:2] [0:1] [0:1257] [0:17820] [0:1] [0:1] [1:459]
tree_sizes=1785 1787 1793 1793 1800 1783 1795 1801 1785 1792 1775 1781 1791 1790 1810 1772 1788 1793 1801 1792 1782 1796 1793 1798 1803 1784 1789 1794 1796 1787 1782 1777 1802 1805 1799 1789 1789 1791 1800 1794 1773 1788 1798 1797 1790 1781 1786 1798 1783 1818 1780 1798 1789 1788 1801 1780 1799 1796 1781 1808 1781 1800 1794 1787 1806 1798 1791 1787 1797 1796 1772 1785 1790 1797 1791 1795 1795 1785 1792 1798 1773 1789 1774 1797 1807 1778 1794 1790 1781 1802 1778 1780 1799 1785 1790 1779 1792 1788 1799 1805

Tree=0
num_leaves=16
num_cat=0
split_feature=2 17 2 3 16 15 2 5 11 14 17 2 10 17 14
split_gain=40.6841 12.6723 7.65052 15.9373 6.76824 5.88098 11.2335 5.33077 5.24085 5.11975 4.75804 3.15661 2.88132 7.04571 7.02733
threshold=306.50000000000006 13.500000000000002 264.50000000000006 264.50000000000006 1.0000000180025095e-35 1.0000000180025095e-35 255.00000000000003 1.5000000000000002 1.5000000000000002 124.50000000000001 3.5000000000000004 79.500000000000014 1.5000000000000002 8.5000000000000018 124.50000000000001
decision_type=2 2 2 2 2 2 2 2 2 2 2 2 2 2 2
left_child=1 2 5 12 -5 10 7 9 -6 -7 -1 -9 -4 -14 -15
right_child=-2 -3 3 4 8 6 -8 11 -10 -11 -12 -13 13 14 -16
leaf_value=-3.0281386809873436 -4.0824577670503404 -3.7725268702464603 -3.8458227556826676 -1.7512744420433268 -3.4900810770125341 -1.3906452787438583 -0.88318806975057029 -3.9118916776175006 -2.1080484016449654 -2.9544965984825549 -4.4216734730010439 -2.9005314720634838 -3.5617277526155555 -1.4437402128397538 -3.4106776435009083
leaf_weight=8.6111952960491163 123.81502425670624 50.83597531914711 22.575295776128769 7.1150416731834421 7.5140159726142883 4.2889737188816124 3.3912815451622 3.9232472777366665 4.322221577167511 4.0894865691661835 3.424529403448104 14.462818354368208 47.677428781986237 3.3580336868762961 3.9564951360225677
leaf_count=259 3724 1529 679 214 226 129 102 118 130 123 103 435 1434 101 119
internal_value=-3.63664 -3.34542 -3.18889 -3.34416 -2.52207 -2.83368 -2.59781 -2.81507 -2.98541 -2.15395 -3.42464 -3.11634 -3.54501 -3.42153 -2.50767
internal_weight=313.361 189.546 138.71 96.5185 18.9513 42.1915 30.1558 26.7645 11.8362 8.37846 12.0357 18.3861 77.5673 54.992 7.31453
internal_count=9425 5701 4172 2903 570 1269 907 805 356 252 362 553 2333 1654 220
is_linear=0
shrinkage=1


Tree=1
num_leaves=16
num_cat=0
split_feature=6 6 17 10 1 0 16 4 10 2 14 2 2 8 14
split_gain=26.9376 14.8072 18.8048 58.9485 47.8247 17.6864 24.8351 13.187 11.9963 17.7909 11.4217 20.425 11.2838 9.37059 8.62527
threshold=2.5000000000000004 1.5000000000000002 145.00000000000003 1.5000000000000002 2.5000000000000004 1.5000000000000002 1.0000000180025095e-35 1.5000000000000002 1.0000000180025095e-35 292.50000000000006 45.500000000000007 299.50000000000006 265.50000000000006 2.5000000000000004 524.50000000000011
decision_type=2 2 2 2 2 2 2 2 2 2 2 2 2 2 2
left_child=1 2 3 8 10 14 -7 -6 9 -1 -5 -12 -10 -8 -3
right_child=-2 5 -4 4 7 6 13 -9 12 -11 11 -13 -14 -15 -16
leaf_value=-1.5026085855806812 -1.0848801443680738 -1.5784465196425139 -2.1066952536301033 -1.5085553986554201 -1.4954699755823846 -1.721266595112843 -1.0041602291403255 -1.9423400642680195 -1.6212912231732821 -2.0682559103188467 -0.86417315039325515 -1.4197348162075816 -2.2718848234661193 -1.5563607623358398 -2.046332157557837
leaf_weight=108.80766141414642 104.51262214779854 350.96606576442719 93.672761142253876 97.354223370552063 109.01218709349632 98.17232608795166 163.62054347991943 167.50653138756752 33.133160054683685 113.71627771854401 150.32637432217598 118.21584266424179 136.41862812638283 37.837250679731369 44.382072418928146
leaf_count=532 511 1716 458 476 533 480 800 819 162 556 735 578 667 185 217
internal_value=-1.57861 -1.60692 -1.67765 -1.6388 -1.45231 -1.49209 -1.30885 -1.76617 -1.94436 -1.79167 -1.21512 -1.10874 -2.14475 -1.10787 -1.63097
internal_weight=1927.65 1823.14 1128.16 1034.49 642.415 694.978 299.63 276.519 392.076 222.524 365.896 268.542 169.552 201.458 395.348
internal_count=9425 8914 5516 5058 3141 3398 1465 1352 1917 1088 1789 1313 829 985 1933
is_linear=0
shrinkage=1


Tree=2
num_leaves=16
num_cat=0
split_feature=14 10 1 5 17 17 2 14 2 14 1 17 14 10 2
split_gain=21.9945 12.5772 62.6069 18.5367 15.1833 10.06 15.7148 8.56265 7.33644 6.6028 8.68654 18.6433 5.78096 4.57076 4.20942
threshold=1.0000000180025095e-35 2.5000000000000004 3.5000000000000004 1.5000000000000002 2.5000000000000004 5.5000000000000009 305.50000000000006 62.500000000000007 305.50000000000006 620.50000000000011 1.5000000000000002 9.5000000000000018 38.500000000000007 1.0000000180025095e-35 251.50000000000003
decision_type=2 2 2 2 2 2 2 2 2 2 2 2 2 2 2
left_child=-1 2 3 4 -2 8 7 -7 13 10 11 -3 -6 -4 -12
right_child=1 9 5 -5 12 6 -8 -9 -10 -11 14 -13 -14 -15 -16
leaf_value=-1.9285199295539839 -1.6649791128462763 -1.4544885545051884 -1.370763532418648 -1.0530414695510768 -0.80340858521601699 -1.5333282542580662 -1.6406221429745338 -1.0999654141074935 -1.7910278375608761 -0.83947314298065567 -0.98671505341582355 -0.34444947091760392 -1.2804250067734906 -1.6021923190876879 -1.2983081139377837
leaf_weight=54.354557782411575 103.79015105962753 27.300253003835678 127.4011806845665 675.86572301387787 34.924647986888885 62.962745666503906 144.86350467801094 165.27720737457275 142.89591887593269 64.438435018062592 51.403179079294205 33.940855085849762 93.214377373456955 258.49158474802971 276.93770164251328
leaf_count=221 422 111 518 2748 142 256 589 672 581 262 209 138 379 1051 1126
internal_value=-1.2999 -1.28481 -1.32214 -1.13675 -1.38069 -1.50875 -1.38302 -1.21951 -1.59746 -1.13599 -1.18504 -0.839286 -1.15041 -1.52579 -1.24953
internal_weight=2318.06 2263.71 1809.69 907.795 231.929 901.892 373.103 228.24 528.789 454.02 389.582 61.2411 128.139 385.893 328.341
internal_count=9425 9204 7358 3691 943 3667 1517 928 2150 1846 1584 249 521 1569 1335
is_linear=0
shrinkage=1


Tree=3
num_leaves=16
num_cat=0
split_feature=14 13 14 17 3 10 17 10 1 14 10 14 17 4 17
split_gain=40.1743 12.2346 11.082 115.151 13.3549 8.1596 14.9572 7.80245 9.8116 11.181 7.28149 6.59622 7.13537 6.07675 10.8437
threshold=443.00000000000006 81.500000000000014 12.500000000000002 229.50000000000003 306.50000000000006 1.0000000180025095e-35 387.00000000000006 1.5000000000000002 10.500000000000002 257.00000000000006 1.5000000000000002 1041.5000000000002 9.5000000000000018 1.5000000000000002 3.5000000000000004
decision_type=2 2 2 2 2 2 2 2 2 2 2 2 2 2 2
left_child=2 10 4 7 -1 -5 -7 8 9 13 -2 -3 -13 -4 -15
right_child=1 11 3 5 -6 6 -8 -9 -10 -11 -12 12 -14 14 -16
leaf_value=-1.9304069261265511 -0.46898084014152475 -1.4165656593085814 -1.7125875651723987 -0.97176592125188521 -1.2943324146277266 -0.8224063762226399 0.061171726075247568 -1.6933395887627052 -1.6921296613478753 -1.0053194056839754 -1.1405748730024643 -1.3461904898912416 -0.82934296169671773 -1.7421976100853556 -1.167882647031933
leaf_weight=161.82590237259865 31.259405583143234 176.71133360266685 89.737885415554047 36.788280040025711 41.466558426618576 39.978015303611755 36.788280040025711 828.0552744269371 225.40795862674713 54.438148498535156 33.385895758867264 56.564638674259186 50.610466182231903 52.099009305238724 89.099938362836838
leaf_count=761 147 831 422 173 195 188 173 3894 1060 256 157 266 238 245 419
internal_value=-1.51703 -1.20845 -1.58199 -1.55138 -1.80066 -0.584542 -0.398974 -1.63338 -1.53618 -1.41301 -0.815824 -1.29785 -1.10212 -1.50911 -1.37979
internal_weight=2004.22 348.532 1655.69 1452.39 203.292 113.555 76.7663 1338.84 510.783 285.375 64.6453 283.886 107.175 230.937 141.199
internal_count=9425 1639 7786 6830 956 534 361 6296 2402 1342 304 1335 504 1086 664
is_linear=0
shrinkage=1


Tree=4
num_leaves=16
num_cat=0
split_feature=2 16 8 17 10 6 16 14 2 17 14 13 4 17 14
split_gain=72.2406 330.098 21.7718 21.8541 21.5718 25.6957 98.501 27.9989 42.7044 35.9607 13.8217 8.8985 7.76326 40.7674 10.7012
threshold=303.50000000000006 1.0000000180025095e-35 1.5000000000000002 3.5000000000000004 2.5000000000000004 2.5000000000000004 1.0000000180025095e-35 45.500000000000007 205.50000000000003 4.5000000000000009 159.50000000000003 28.500000000000004 2.5000000000000004 2.5000000000000004 180.50000000000003
decision_type=2 2 2 2 2 2 2 2 2 2 2 2 2 2 2
left_child=4 10 -3 -4 5 6 7 -1 -9 -10 -2 -5 -8 14 -14
right_child=1 2 3 11 -6 -7 12 8 9 -11 -12 -13 13 -15 -16
leaf_value=-0.53966164028040908 0.10785407706389827 -1.5349865103080078 -0.76113358986062307 -0.96957616668392343 -1.6664806952412703 -1.8656204044319988 -1.6586287826840733 -1.6043114811195798 -0.51003607379525084 -1.3433938676327983 -0.36036440553047655 -1.668267164976138 -0.5207917772612739 -1.9011660230734087 -1.3018025175781742
leaf_weight=114.39068311452866 140.84667810797691 519.29338744282722 84.407222121953964 25.448147565126419 305.12580892443657 94.485696405172348 434.13027974963188 115.39853054285049 126.98877596855164 87.430764406919479 114.1387212574482 64.250273555517197 41.321744561195374 76.596404552459717 30.487384706735611
leaf_count=454 559 2061 335 101 1211 375 1723 458 504 347 453 255 164 304 121
internal_value=-1.28852 -1.07462 -1.43238 -1.12636 -1.43074 -1.36659 -1.32066 -0.965965 -1.11382 -0.849842 -0.101734 -1.47004 -1.59113 -1.39369 -0.852379
internal_weight=2374.74 948.384 693.399 174.106 1426.36 1121.23 1026.74 444.209 329.818 214.42 254.985 89.6984 582.536 148.406 71.8091
internal_count=9425 3764 2752 691 5661 4450 4075 1763 1309 851 1012 356 2312 589 285
is_linear=0
shrinkage=1


Tree=5
num_leaves=16
num_cat=0
split_feature=6 17 0 10 6 14 10 10 0 14 14 14 14 2 17
split_gain=19.9517 14.5617 7.05578 7.89464 5.20862 4.22696 3.95204 3.84502 3.64889 7.46315 3.61969 3.53282 10.7485 8.0627 3.65115
threshold=1.5000000000000002 13.500000000000002 1.5000000000000002 2.5000000000000004 2.5000000000000004 18.500000000000004 1.5000000000000002 1.5000000000000002 1.5000000000000002 12.500000000000002 96.500000000000014 257.00000000000006 201.50000000000003 255.00000000000003 6.5000000000000009
decision_type=2 2 2 2 2 2 2 2 2 2 2 2 2 2 2
left_child=6 4 5 -4 11 -3 -1 -6 9 -8 -10 12 14 -13 -2
right_child=1 2 3 -5 7 -7 8 -9 10 -11 -12 13 -14 -15 -16
leaf_value=-3.9801743768156634 -3.0433436432569967 -3.317925732537593 -3.7089453704505928 -1.9563352822117797 -3.0308237191222447 -4.1842224788355518 -2.6260241638888631 -1.9021236570740052 -3.7968024357234325 -3.9772834324316424 -3.2849485911601102 -2.1300829261340719 -1.6873892977620413 -3.8053389253037277 -3.7871349513211063
leaf_weight=72.480331063270569 40.628882825374603 7.248033106327056 7.0152980983257276 4.0562387108802795 5.7518794834613782 25.268372297286987 4.4552130103111258 6.3503409326076508 24.004953682422638 49.506060987710953 32.549653261899948 3.4910251200199154 5.4858966171741477 16.224954843521118 7.8797424137592307
leaf_count=2180 1222 218 211 122 173 760 134 191 722 1489 979 105 165 488 237
internal_value=-3.5862 -3.28567 -3.75635 -3.06685 -3.04659 -3.99112 -3.79871 -2.43857 -3.6797 -3.86572 -3.50221 -3.14641 -3.01412 -3.50871 -3.16417
internal_weight=312.397 129.401 43.5879 11.0715 85.8127 32.5164 182.996 12.1022 110.516 53.9613 56.5546 73.7105 53.9945 19.716 48.5086
internal_count=9396 3892 1311 333 2581 978 5504 364 3324 1623 1701 2217 1624 593 1459
is_linear=0
shrinkage=1


Tree=6
num_leaves=16
num_cat=0
split_feature=2 10 10 16 14 10 2 6 13 16 14 14 2 1 2
split_gain=129.13 34.4874 21.9731 21.8961 16.3809 12.826 15.4644 11.3643 10.3734 18.4769 8.29165 6.96252 6.07481 9.89597 8.51999
threshold=303.50000000000006 1.5000000000000002 1.5000000000000002 1.0000000180025095e-35 443.00000000000006 1.0000000180025095e-35 264.50000000000006 2.5000000000000004 7.5000000000000009 1.0000000180025095e-35 524.50000000000011 140.50000000000003 266.50000000000006 2.5000000000000004 292.50000000000006
decision_type=2 2 2 2 2 2 2 2 2 2 2 2 2 2 2
left_child=1 4 8 -4 5 6 -1 12 -2 -10 -11 -9 -3 -14 -15
right_child=2 7 3 -5 -6 -7 -8 11 9 10 -12 -13 13 14 -16
leaf_value=-1.0233763011400496 -1.5370268093921353 -1.3086799857288947 -2.2620756771098192 -1.6542162170195869 -1.9718005958651799 -1.7118755770371064 -1.591475074512062 -1.116606355093082 -2.4291270529576554 -1.8385792268036356 -2.4400425739077076 -0.36465395803931733 -0.61419075350604813 -0.95730384727280293 -1.7878684756937695
leaf_weight=90.809401631355286 30.474326223134995 579.62577527761459 70.765885055065155 364.46476060152054 91.013927310705185 151.96257975697517 101.44473695755005 27.201915353536606 132.94169157743454 145.6222836971283 27.201915353536606 22.497824728488922 34.973891168832779 29.451697826385498 21.270670652389526
leaf_count=444 149 2834 346 1782 445 743 496 133 650 712 133 110 171 144 104
internal_value=-1.58487 -1.37258 -1.90139 -1.75305 -1.59451 -1.49476 -1.32314 -1.23748 -2.0934 -2.14885 -1.93325 -0.776216 -1.27194 -1.02343 -1.30561
internal_weight=1921.72 1150.25 771.471 435.231 435.231 344.217 192.254 715.022 336.24 305.766 172.824 49.6997 665.322 85.6963 50.7224
internal_count=9396 5624 3772 2128 2128 1683 940 3496 1644 1495 845 243 3253 419 248
is_linear=0
shrinkage=1


Tree=7
num_leaves=16
num_cat=0
split_feature=14 4 1 17 2 10 14 13 16 2 13 10 10 6 17
split_gain=20.2684 5.24303 66.6097 25.1646 10.6956 9.46649 6.02106 4.46189 3.64875 3.52148 10.4024 4.35632 2.68128 3.35394 2.41803
threshold=1.0000000180025095e-35 1.5000000000000002 3.5000000000000004 9.5000000000000018 306.50000000000006 2.5000000000000004 778.50000000000011 69.500000000000014 1.0000000180025095e-35 265.50000000000006 16.500000000000004 1.5000000000000002 2.5000000000000004 1.5000000000000002 1.5000000000000002
decision_type=2 2 2 2 2 2 2 2 2 2 2 2 2 2 2
left_child=-1 5 3 6 -4 -2 14 8 -6 -5 -11 -12 13 -13 -3
right_child=1 2 4 9 7 -7 -8 -9 -10 10 11 12 -14 -15 -16
leaf_value=-1.9008824639299269 -1.2803851110546371 -1.4254374153760225 -1.4796754666904719 -1.1409222458253083 -1.9898456668854716 -1.0193379982795308 -0.90889885465835718 -1.5637651092519189 -1.6277667626408805 -1.2596368044521244 -0.99509110258763422 -0.71399675832808562 -0.85794777213858742 -0.30381082638909196 -1.2666242693555427
leaf_weight=55.338350683450699 661.3547777235508 156.9149677157402 422.78499922156334 67.143865495920181 86.32782706618309 175.85298106074333 37.384130239486694 73.538519352674484 41.073353618383408 59.273522287607193 70.833088874816895 66.160072594881058 61.978952765464783 28.529994130134583 246.44012171030045
leaf_count=225 2689 638 1719 273 351 715 152 299 167 241 288 269 252 116 1002
internal_value=-1.30298 -1.28831 -1.32535 -1.13336 -1.56995 -1.22555 -1.29282 -1.7599 -1.87311 -0.934774 -0.886508 -0.789293 -0.696248 -0.590408 -1.32841
internal_weight=2310.93 2255.59 1418.38 794.659 623.725 837.208 440.739 200.94 127.401 353.919 286.776 227.502 156.669 94.6901 403.355
internal_count=9396 9171 5767 3231 2536 3404 1792 817 518 1439 1166 925 637 385 1640
is_linear=0
shrinkage=1


Tree=8
num_leaves=16
num_cat=0
split_feature=9 14 0 16 17 17 14 10 17 10 9 14 6 14 1
split_gain=19.5403 49.9021 25.3634 9.19433 99.6803 15.7749 6.78377 4.99273 3.9795 3.50367 3.28984 4.70272 3.1191 8.44508 6.76816
threshold=41331.000000000007 524.50000000000011 1.5000000000000002 1.0000000180025095e-35 49.000000000000007 8.5000000000000018 201.50000000000003 2.5000000000000004 76.000000000000014 1.5000000000000002 41326.500000000007 257.00000000000006 1.5000000000000002 12.500000000000002 23.500000000000004
decision_type=2 2 2 2 2 2 2 2 2 2 2 2 2 2 2
left_child=1 3 9 5 7 10 8 -5 -7 -3 11 -1 13 -2 -14
right_child=12 2 -4 4 -6 6 -8 -9 -10 -11 -12 -13 14 -15 -16
leaf_value=-1.9066376669250225 -2.0445066170192554 -0.49315134275352368 -1.3676194466117022 -1.6294845186216649 -0.81702674884900683 -1.6574926709444562 -1.0520780589029184 -1.8549230025013861 -1.173070800385897 -0.8641735175951667 -1.5131948403324926 -1.5126666974133207 -1.8561767862327185 -1.5681707734396253 -1.4766775299211898
leaf_weight=199.46477848291397 41.679207444190979 57.415234744548798 98.243846118450165 452.72975841164589 175.01014146208763 68.472983658313751 42.104505479335785 125.46292036771774 22.540795862674713 45.719538778066635 33.81119379401207 35.725034952163696 189.25762563943863 347.89379274845123 62.518811166286469
leaf_count=938 196 270 462 2129 823 322 198 590 106 215 159 168 890 1636 294
internal_value=-1.53136 -1.46337 -1.004 -1.54344 -1.47826 -1.66553 -1.38398 -1.6784 -1.53752 -0.657625 -1.80486 -1.84679 -1.6752 -1.61913 -1.76194
internal_weight=1998.05 1356.7 201.379 1155.32 753.203 402.119 133.118 578.193 91.0138 103.135 269.001 235.19 641.349 389.573 251.776
internal_count=9396 6380 947 5433 3542 1891 626 2719 428 485 1265 1106 3016 1832 1184
is_linear=0
shrinkage=1


Tree=9
num_leaves=16
num_cat=0
split_feature=10 16 1 2 6 2 14 8 17 14 17 14 14 10 14
split_gain=41.5813 167.957 141.143 69.711 36.8696 24.1539 38.355 24.9088 32.6804 15.3579 22.496 14.1414 13.4877 12.8453 10.3263
threshold=1.5000000000000002 1.0000000180025095e-35 3.5000000000000004 265.50000000000006 2.5000000000000004 306.50000000000006 6.5000000000000009 1.5000000000000002 1.5000000000000002 140.50000000000003 5.5000000000000009 84.500000000000014 228.50000000000003 1.0000000180025095e-35 140.50000000000003
decision_type=2 2 2 2 2 2 2 2 2 2 2 2 2 2 2
left_child=2 3 13 11 -4 6 -3 -7 -9 10 -5 -2 -8 -1 -10
right_child=1 5 4 9 -6 7 12 8 14 -11 -12 -13 -14 -15 -16
leaf_value=-1.7551913940085391 -0.9239784538862037 -0.67104276434868571 -0.78198847263874727 0.1480579114348981 -1.6257251943258209 -1.5439061726762717 -1.6361347559877002 -0.29154862475135557 -0.99973324729773017 -0.68505153613144454 -0.9199797910936971 -1.6014329356187533 -1.9427380731797796 -1.0369915364964393 -1.6662336598218759
leaf_weight=267.07956850528717 53.415913701057434 35.022698134183884 599.16529613733292 82.139565408229828 56.691417843103409 309.40916049480438 398.35169604420662 41.573706418275833 43.33743941783905 80.62779426574707 25.952071279287338 72.816976696252823 224.24605280160904 27.463842421770096 50.140409559011459
leaf_count=1060 212 139 2378 326 225 1228 1581 165 172 320 103 289 890 109 199
internal_value=-1.275 -1.38354 -1.11317 -0.739524 -0.85492 -1.56758 -1.68929 -1.3875 -1.02918 -0.35475 -0.108371 -1.31477 -1.74657 -1.68822 -1.35724
internal_weight=2367.43 1417.03 950.4 314.952 655.857 1102.08 657.62 444.461 135.052 188.719 108.092 126.233 622.598 294.543 93.4778
internal_count=9396 5624 3772 1250 2603 4374 2610 1764 536 749 429 501 2471 1169 371
is_linear=0
shrinkage=1


Tree=10
num_leaves=16
num_cat=0
split_feature=2 2 6 2 14 10 11 5 2 4 17 14 4 6 13
split_gain=28.7695 5.93746 6.42712 5.68383 5.50761 4.57567 5.6839 3.52199 13.376 7.69376 6.16679 5.14375 5.33942 3.8124 6.1526
threshold=306.50000000000006 266.50000000000006 2.5000000000000004 292.50000000000006 18.500000000000004 2.5000000000000004 1.5000000000000002 1.5000000000000002 264.50000000000006 1.5000000000000002 1.5000000000000002 12.500000000000002 1.5000000000000002 2.5000000000000004 16.500000000000004
decision_type=2 2 2 2 2 2 2 2 2 2 2 2 2 2 2
left_child=1 7 3 -3 5 6 -2 8 9 -1 11 -9 -13 14 -12
right_child=4 2 -4 -5 -6 -7 -8 10 -10 -11 13 12 -14 -15 -16
leaf_value=-1.7241733898056157 -2.7062480398663089 -2.6424632068596088 -1.6873892977620413 -3.6553772710232342 -4.0653982905665353 -4.4216734730010439 -3.9492578825147238 -2.1257096617316535 -3.574018806430352 -3.0780217992581664 -3.1108059991576478 -2.7561648711453648 -3.707252429589428 -2.8836386244291048 -3.8464692529457327
leaf_weight=7.4142723977565774 8.7441867291927355 11.802989691495901 3.6572644114494315 10.439827501773832 106.65912938117981 4.0894865691661826 6.3503409326076499 4.3554694354534176 34.212046176195145 9.6751267611980438 13.731365472078322 10.207092493772508 13.997348338365553 5.8516230583190909 66.06349441409111
leaf_count=223 263 355 110 314 3208 123 191 131 1029 291 413 307 421 176 1987
internal_value=-3.60529 -3.36111 -2.91589 -3.11788 -3.97668 -3.48339 -3.22919 -3.43078 -3.21313 -2.49065 -3.52855 -3.12615 -3.30618 -3.66274 -3.71987
internal_weight=317.251 191.408 25.9001 22.2428 125.843 19.184 15.0945 165.508 51.3014 17.0894 114.206 28.5599 24.2044 85.6465 79.7949
internal_count=9542 5757 779 669 3785 577 454 4978 1543 514 3435 859 728 2576 2400
is_linear=0
shrinkage=1


Tree=11
num_leaves=16
num_cat=0
split_feature=5 2 6 2 16 1 0 2 1 6 1 10 17 17 2
split_gain=25.4582 25.2296 24.4356 58.8004 54.3051 15.3036 13.0245 7.51273 18.3184 7.34479 16.6157 9.5369 7.08871 6.63676 5.90142
threshold=1.5000000000000002 303.50000000000006 2.5000000000000004 300.50000000000006 1.0000000180025095e-35 2.5000000000000004 1.5000000000000002 266.50000000000006 3.5000000000000004 1.5000000000000002 2.5000000000000004 1.5000000000000002 25.500000000000004 2.5000000000000004 196.00000000000003
decision_type=2 2 2 2 2 2 2 2 2 2 2 2 2 2 2
left_child=1 5 3 7 -5 -1 -7 14 -9 10 11 -6 -13 -8 -2
right_child=2 -3 -4 4 9 6 13 8 -10 -11 -12 12 -14 -15 -16
leaf_value=-1.0081655914980647 -1.3384637558725649 -1.8566322032843392 -1.094549084779505 -2.3375796479305953 -2.0324155686028762 -1.0931194468888101 -1.9057865593452461 -0.57953860330774998 -1.5381007387216188 -1.5572150881209845 -2.1389825469868202 -1.3515504258557696 -1.7771967921939749 -1.4403593304431375 -1.5633185962532885
leaf_weight=150.73542568087578 152.16710543632507 84.878156930208206 77.719758152961731 188.36815068125725 48.677111685276031 73.629244565963745 49.904265761375427 30.883377581834793 56.244561821222305 196.14012649655342 100.42210856080055 94.695389539003372 66.675371468067169 79.355963587760925 501.08791440725327
leaf_count=737 744 415 380 921 238 360 244 151 275 959 491 463 326 388 2450
internal_value=-1.57919 -1.36703 -1.64068 -1.67025 -1.87916 -1.24952 -1.42882 -1.47415 -1.19833 -1.7087 -1.80441 -1.64445 -1.52742 -1.62005 -1.51094
internal_weight=1951.58 438.503 1513.08 1435.36 694.978 353.625 202.889 740.383 87.1279 506.61 310.47 210.048 161.371 129.26 653.255
internal_count=9542 2144 7398 7018 3398 1729 992 3620 426 2477 1518 1027 789 632 3194
is_linear=0
shrinkage=1


Tree=12
num_leaves=16
num_cat=0
split_feature=16 1 17 13 2 9 10 12 17 5 8 1 13 0 0
split_gain=87.891 17.8848 21.1503 7.61334 26.6873 6.07098 5.00931 11.9734 19.1474 8.36579 5.46653 3.55776 3.11436 3.10904 3.02574
threshold=1.0000000180025095e-35 2.5000000000000004 2.5000000000000004 13.500000000000002 306.50000000000006 41326.500000000007 2.5000000000000004 1.0000000180025095e-35 1.5000000000000002 1.5000000000000002 1.5000000000000002 12.500000000000002 59.500000000000007 1.5000000000000002 1.5000000000000002
decision_type=2 2 2 2 2 2 2 2 2 2 2 2 2 2 2
left_child=3 6 13 -1 -5 -4 7 -2 -9 12 -11 -6 -10 -3 -7
right_child=1 2 5 4 11 14 -8 8 9 10 -12 -13 -14 -15 -16
leaf_value=-1.8081462679918927 -1.4520723475683242 -1.7292112832266495 -1.0670590652826153 -1.3974806210343742 -1.6923516925669499 -1.5014299731382672 -0.94991447608677171 -1.4448405539131848 -1.1263673386859197 -0.84624853633957986 -1.1106230717354821 -1.9437745320974882 -1.5070311528945388 -1.4671454979184426 -1.2116365465435399
leaf_weight=111.9064424932003 93.214377373456955 78.211535632610321 236.60219269990921 493.37213987112045 117.56325167417526 58.53567761182785 236.11029624938965 110.18480491638184 75.752053380012512 288.98916468024254 107.23342621326447 107.97127088904381 30.005683481693268 107.47937443852425 93.706273823976517
leaf_count=455 379 318 962 2006 478 238 960 448 308 1175 436 439 122 437 381
internal_value=-1.3041 -1.16084 -1.29988 -1.56552 -1.52775 -1.16729 -1.07599 -1.11819 -1.06735 -0.984494 -0.917799 -1.81272 -1.23437 -1.57753 -1.32306
internal_weight=2346.84 1516.02 574.535 830.813 718.907 388.844 941.49 705.38 612.165 501.98 396.223 225.535 105.758 185.691 152.242
internal_count=9542 6164 2336 3378 2923 1581 3828 2868 2489 2041 1611 917 430 755 619
is_linear=0
shrinkage=1


Tree=13
num_leaves=16
num_cat=0
split_feature=3 14 2 10 2 17 8 9 17 2 14 14 6 16 17
split_gain=24.4815 42.4482 17.7051 14.9181 10.8512 10.0649 6.17272 18.4096 55.3145 18.1208 5.88069 5.85701 5.70905 4.52453 4.45046
threshold=306.50000000000006 331.00000000000006 305.50000000000006 1.0000000180025095e-35 306.50000000000006 13.500000000000002 1.5000000000000002 41333.500000000007 49.000000000000007 306.50000000000006 18.500000000000004 84.500000000000014 1.5000000000000002 1.0000000180025095e-35 1.5000000000000002
decision_type=2 2 2 2 2 2 2 2 2 2 2 2 2 2 2
left_child=1 4 5 -4 10 14 7 8 11 -10 -1 -2 -12 -7 -3
right_child=6 2 3 -5 -6 13 -8 -9 9 -11 12 -13 -14 -15 -16
leaf_value=-1.9094168433893726 -1.9128705629489386 -1.7788411260773436 -0.53296158234975743 -1.2268922485675371 -1.5507200774028347 -0.76776469453142693 -1.5229793828350424 -1.7517422781852723 0.18030521041609626 -0.85185293987496791 -1.6145266290388729 -1.3347847548626093 -1.7975221342301215 -1.3025209946939296 -1.464369370191301
leaf_weight=156.50967693328857 31.472054600715637 70.174175798892975 43.1677505671978 109.72689306735992 518.225655823946 21.902848809957504 56.564638674259186 38.914770215749741 34.449140846729279 33.598544776439667 388.7224041223526 39.552717268466949 303.66279709339142 56.989936709403992 125.46292036771774
leaf_count=736 148 330 203 516 2437 103 266 183 162 158 1828 186 1428 268 590
internal_value=-1.53904 -1.57875 -1.30369 -1.03097 -1.66475 -1.45558 -1.23521 -1.14376 -0.973636 -0.329323 -1.73436 -1.59094 -1.69478 -1.15406 -1.57717
internal_weight=2029.1 1794.55 427.425 152.895 1367.12 274.53 234.552 177.987 139.072 68.0477 848.895 71.0248 692.385 78.8928 195.637
internal_count=9542 8439 2010 719 6429 1291 1103 837 654 320 3992 334 3256 371 920
is_linear=0
shrinkage=1


Tree=14
num_leaves=16
num_cat=0
split_feature=10 17 17 2 10 14 2 17 10 16 0 13 10 1 2
split_gain=50.4139 302.709 111.748 116.16 29.3892 27.6813 26.7496 26.6148 25.6189 22.1003 19.4432 14.2547 37.6471 25.8585 10.8524
threshold=1.5000000000000002 1.5000000000000002 49.000000000000007 292.50000000000006 1.0000000180025095e-35 24.500000000000004 306.50000000000006 1.5000000000000002 1.0000000180025095e-35 1.0000000180025095e-35 1.5000000000000002 46.500000000000007 1.0000000180025095e-35 5.5000000000000009 205.50000000000003
decision_type=2 2 2 2 2 2 2 2 2 2 2 2 2 2 2
left_child=2 6 3 4 7 -3 14 -1 -4 -8 -6 13 -13 -5 -2
right_child=1 5 8 11 10 -7 9 -9 -10 -11 -12 12 -14 -15 -16
leaf_value=-1.0472292554600104 -1.3018025175781742 -1.3079178559124771 -2.0083789009540745 -0.61006055453805119 -1.3774123808806016 -1.7253561682974927 0.43870029073764782 -1.7174498334840655 -1.2585059221713106 -0.48514182464405242 -0.71603350601453086 -1.0798466562929885 -0.12010573018726456 0.24179164197730341 -0.70449572287918427
leaf_weight=94.989620119333267 36.030545562505722 193.25474438071251 133.03586053848267 76.092480838298798 68.53362512588501 892.44889777898788 35.778583705425262 157.47616067528725 69.289510697126389 93.729810833930969 126.48485225439072 89.698421120643616 75.084633409976959 67.021853983402252 195.27043923735619
leaf_count=377 143 767 528 302 272 3542 142 625 275 372 502 356 298 266 775
internal_value=-1.26951 -1.38734 -1.09155 -0.914762 -1.24004 -1.65105 -0.593798 -1.46528 -1.75157 -0.229917 -0.948456 -0.442012 -0.642534 -0.21113 -0.79754
internal_weight=2404.22 1446.51 957.707 755.382 447.484 1085.7 360.809 252.466 202.325 129.508 195.018 307.897 164.783 143.114 231.301
internal_count=9542 5741 3801 2998 1776 4309 1432 1002 803 514 774 1222 654 568 918
is_linear=0
shrinkage=1


Tree=15
num_leaves=16
num_cat=0
split_feature=17 6 5 2 14 8 14 14 2 2 17 6 10 9 2
split_gain=25.7698 15.7965 11.9964 18.1234 13.5074 8.5028 14.972 7.22116 6.45623 4.54522 2.6068 3.82042 3.2551 2.4449 2.19473
threshold=16.500000000000004 2.5000000000000004 1.5000000000000002 213.50000000000003 96.500000000000014 2.5000000000000004 331.00000000000006 6.5000000000000009 299.50000000000006 285.50000000000006 387.00000000000006 2.5000000000000004 1.0000000180025095e-35 41364.000000000007 282.50000000000006
decision_type=2 2 2 2 2 2 2 2 2 2 2 2 2 2 2
left_child=1 2 3 -1 -5 6 -6 9 14 -4 11 -2 -12 -10 -9
right_child=10 -3 7 4 5 -7 -8 8 13 -11 12 -13 -14 -15 -16
leaf_value=-1.733930305000152 -4.175047766550116 -2.3957530737306949 -2.1710041858995517 -3.9603678606140953 -1.8436341077756997 -3.9286058348431907 -3.5927763017671728 -3.6260574824733038 -4.1220545940284943 -3.6301701591160693 -2.8792567587636575 -3.1788170297105882 -4.0678249326759959 -3.6196167815976028 -3.1044270820099915
leaf_weight=7.8132466971874228 89.204003781080246 12.833673298358915 4.887435168027876 21.677603602409363 11.636750400066381 6.0843580663204184 8.4449560046195966 70.385715991258621 43.38845506310463 3.7902558445930481 3.8899994194507581 4.0229908525943747 5.6521359086036682 12.467946857213972 9.1099131703376752
leaf_count=235 2683 386 147 652 350 183 254 2117 1305 114 117 121 170 375 274
internal_value=-3.66998 -3.47118 -3.54029 -3.146 -3.3766 -2.89298 -2.5792 -3.69266 -3.74935 -2.80834 -4.0811 -4.13206 -3.58329 -4.0099 -3.56628
internal_weight=315.289 212.52 199.687 55.6569 47.8437 26.1661 20.0817 144.03 135.352 8.67769 102.769 93.227 9.54214 55.8564 79.4956
internal_count=9483 6392 6006 1674 1439 787 604 4332 4071 261 3091 2804 287 1680 2391
is_linear=0
shrinkage=1


Tree=16
num_leaves=16
num_cat=0
split_feature=2 10 2 10 13 10 17 1 10 8 10 5 14 17 17
split_gain=105.682 28.9421 19.2119 14.0339 10.3844 14.5466 12.4814 19.5352 12.4419 9.6499 9.13236 8.54659 9.94481 8.48237 6.74129
threshold=303.50000000000006 1.5000000000000002 205.50000000000003 1.0000000180025095e-35 89.500000000000014 1.5000000000000002 145.00000000000003 2.5000000000000004 1.0000000180025095e-35 2.5000000000000004 1.5000000000000002 2.5000000000000004 6.5000000000000009 2.5000000000000004 94.000000000000014
decision_type=2 2 2 2 2 2 2 2 2 2 2 2 2 2 2
left_child=1 2 -1 -4 5 8 7 9 14 -7 -6 12 -3 -9 -2
right_child=4 11 3 -5 10 6 -8 13 -10 -11 -12 -13 -14 -15 -16
leaf_value=-1.3098700568882338 -1.982968935641463 -1.7935297381022499 -1.5503415963814413 -1.9963255727930354 -2.3890795142527659 -1.3018117097134063 -2.1723684081231522 -2.2446454841000145 -2.3121391686256367 -1.793722936228741 -1.8831253692625478 -0.88887766731359319 -1.2737419901522034 -1.6868836748129423 -1.580457774922718
leaf_weight=150.32637432217598 124.14708736538887 39.064404755830765 156.25761902332306 128.64665231108665 65.652743071317673 150.93995136022568 45.813752174377441 52.563099592924118 83.65100285410881 54.199305027723312 78.12880951166153 53.585727989673615 637.30201685428619 56.653613179922104 62.584857881069183
leaf_count=735 607 191 764 629 321 738 224 257 409 265 382 262 3116 277 306
internal_value=-1.5853 -1.395 -1.59911 -1.75172 -1.87164 -1.81634 -1.68474 -1.61367 -1.99164 -1.43178 -2.11415 -1.27331 -1.30376 -1.95532 -1.84806
internal_weight=1939.52 1165.18 435.231 284.904 774.334 630.553 360.17 314.356 270.383 205.139 143.782 729.952 676.366 109.217 186.732
internal_count=9483 5697 2128 1393 3786 3083 1761 1537 1322 1003 703 3569 3307 534 913
is_linear=0
shrinkage=1


Tree=17
num_leaves=16
num_cat=0
split_feature=2 14 13 17 10 16 2 14 13 14 6 14 10 2 1
split_gain=4.0248 31.3756 9.35985 10.7788 5.53737 6.64087 8.38584 6.05391 4.94815 3.80666 6.87825 2.86776 2.5913 2.19369 3.56227
threshold=28.500000000000004 1.0000000180025095e-35 13.500000000000002 76.000000000000014 2.5000000000000004 1.0000000180025095e-35 255.00000000000003 1041.5000000000002 31.500000000000004 96.500000000000014 2.5000000000000004 159.50000000000003 1.5000000000000002 306.50000000000006 5.5000000000000009
decision_type=2 2 2 2 2 2 2 2 2 2 2 2 2 2 2
left_child=-1 -2 3 -3 8 6 -6 -7 -4 -10 13 -8 -5 14 -11
right_child=1 2 4 12 5 7 11 -9 9 10 -12 -13 -14 -15 -16
leaf_value=-1.6915640944759307 -2.0356266629716298 -1.5105230870468667 -1.1853467453085411 -1.249644017294417 -0.90247901826086618 -1.1205178836104959 -1.8311585377197463 -0.62803101226812663 -1.4414656847852263 -1.1943461258014001 -0.93862031946155611 -1.3903865844701808 -0.84049076189820737 -1.3703997342626364 -1.3617224559419765
leaf_weight=26.562408328056335 56.568091809749603 293.41623273491859 401.14155539870262 31.973269283771515 24.594822525978088 265.87003150582314 27.79214945435524 27.546201229095459 195.77478730678558 289.4810611307621 53.124816656112671 31.481372833251953 30.005683481693268 350.23027276992798 226.76426368951797
leaf_count=108 230 1193 1631 130 100 1081 113 112 796 1177 216 128 122 1424 922
internal_value=-1.30453 -1.30007 -1.28157 -1.43048 -1.25362 -1.14521 -1.39337 -1.07428 -1.2806 -1.31485 -1.2879 -1.59706 -1.05156 -1.30931 -1.26787
internal_weight=2332.33 2305.76 2249.2 355.395 1893.8 377.285 83.8683 293.416 1516.52 1115.38 919.6 59.2735 61.979 866.476 516.245
internal_count=9483 9375 9145 1445 7700 1534 341 1193 6166 4535 3739 241 252 3523 2099
is_linear=0
shrinkage=1


Tree=18
num_leaves=16
num_cat=0
split_feature=14 13 2 17 14 14 5 10 13 16 17 8 17 1 10
split_gain=58.4925 18.9724 9.50201 71.8083 10.6133 8.33976 4.85489 4.56901 21.3781 3.77865 22.7193 9.69814 17.9201 8.37785 5.28485
threshold=331.00000000000006 75.500000000000014 243.50000000000003 145.00000000000003 140.50000000000003 31.500000000000004 1.5000000000000002 1.0000000180025095e-35 31.500000000000004 1.0000000180025095e-35 3.5000000000000004 1.5000000000000002 25.500000000000004 3.5000000000000004 1.0000000180025095e-35
decision_type=2 2 2 2 2 2 2 2 2 2 2 2 2 2 2
left_child=2 -2 5 9 -5 -1 -7 -8 -9 11 -11 12 -4 -12 -15
right_child=1 -3 3 4 -6 6 7 8 -10 10 13 -13 -14 14 -16
leaf_value=-1.7265440692732443 -0.81988959258133898 -1.3042706336623773 -1.819944995139517 -0.69758529899693045 -1.4442698931070199 -1.5662891116285038 -1.4817893933450434 -0.32873505322107865 -1.400988971484131 -1.8665240965157528 -1.5862957588607245 -2.1880763066921647 -1.1160957073999189 -0.81815875870249288 -1.3963161760030181
leaf_weight=65.708546429872513 103.56007155776024 368.94604548811913 264.96067589521408 85.910203099250793 24.45463702082634 52.949605375528336 41.253909409046173 26.581127196550369 61.88086411356926 341.72697123885155 408.49876275658607 52.736956357955933 41.891856461763382 22.540795862674713 52.949605375528336
leaf_count=309 487 1735 1246 404 115 249 194 125 291 1607 1921 248 197 106 249
internal_value=-1.50598 -1.19811 -1.6002 -1.63454 -0.863036 -1.42102 -1.31112 -1.20696 -1.0788 -1.70638 -1.66912 -1.79194 -1.72385 -1.52974 -1.22368
internal_weight=2016.55 472.506 1544.04 1295.67 110.365 248.374 182.666 129.716 88.462 1185.31 825.716 359.589 306.853 483.989 75.4904
internal_count=9483 2222 7261 6093 519 1168 859 610 416 5574 3883 1691 1443 2276 355
is_linear=0
shrinkage=1


Tree=19
num_leaves=16
num_cat=0
split_feature=16 17 2 17 2 6 14 2 17 14 17 17 8 2 4
split_gain=350.806 222.647 213.551 35.5363 42.9987 34.2584 32.7506 38.3919 29.4745 24.2659 18.3325 13.549 10.5589 15.6714 8.9043
threshold=1.0000000180025095e-35 2.5000000000000004 292.50000000000006 76.000000000000014 306.50000000000006 2.5000000000000004 96.500000000000014 213.50000000000003 5.5000000000000009 108.50000000000001 1.5000000000000002 9.5000000000000018 1.5000000000000002 205.50000000000003 1.5000000000000002
decision_type=2 2 2 2 2 2 2 2 2 2 2 2 2 2 2
left_child=2 10 5 4 11 6 7 -1 12 -6 -2 -3 13 -8 -10
right_child=1 3 -4 -5 9 -7 8 -9 14 -11 -12 -13 -14 -15 -16
leaf_value=-1.2247767392326303 -0.85337349372137217 -1.743284365153337 -0.030378485011480993 -2.1493260093009647 -1.185531554479299 -1.7227416395893487 -1.5417718553284798 -0.37260617779616878 -2.0447758927069204 -1.7140760182379022 -1.2791373502033305 -2.0776461722244788 -0.52864902816989467 -0.84552301213661107 -1.437798233920246
leaf_weight=89.698421120643616 317.47193992137909 243.39515393972397 269.34722521901131 246.9226199388504 174.35760509967804 78.612099409103394 53.415913701057434 128.75250896811485 38.298202276229858 173.09779581427574 148.4055338203907 241.37945908308029 38.802125990390778 81.887603551149368 65.510082840919495
leaf_count=356 1260 966 1069 980 692 312 212 511 152 687 589 958 154 325 260
internal_value=-1.2835 -1.56676 -0.765171 -1.81618 -1.71733 -1.10938 -1.01224 -0.722517 -1.23998 -1.44885 -0.989001 -1.90977 -0.988513 -1.12039 -1.66173
internal_weight=2389.35 1545.03 844.324 1079.15 832.23 574.977 496.365 218.451 277.914 347.455 465.877 484.775 174.106 135.304 103.808
internal_count=9483 6132 3351 4283 3303 2282 1970 867 1103 1379 1849 1924 691 537 412
is_linear=0
shrinkage=1


Tree=20
num_leaves=16
num_cat=0
split_feature=2 2 2 6 13 6 14 10 14 13 11 4 12 10 4
split_gain=35.4276 14.5731 10.5102 10.6061 12.3996 10.238 9.17745 5.64691 4.42338 3.75433 4.04389 3.17338 3.32218 3.00425 2.34004
threshold=306.50000000000006 266.50000000000006 265.50000000000006 2.5000000000000004 28.500000000000004 2.5000000000000004 290.50000000000006 1.5000000000000002 84.500000000000014 19.500000000000004 1.0000000180025095e-35 1.5000000000000002 1.0000000180025095e-35 1.5000000000000002 2.5000000000000004
decision_type=2 2 2 2 2 2 2 2 2 2 2 2 2 2 2
left_child=1 2 3 11 -5 6 7 -3 -9 10 -2 -1 -13 -6 -14
right_child=9 5 -4 4 13 -7 -8 8 -10 -11 -12 12 14 -15 -16
leaf_value=-3.0914014524694471 -2.9083589609190805 -3.3551087237943409 -3.7049308707395201 -0.76744322011153576 -3.543509212340342 -1.0485378549491902 -3.8376516103286353 -2.5937818420401637 -1.2792871820547282 -4.1063996163173009 -3.8697996027693184 -2.6221873063907601 -3.4706181077005214 -2.3863792372968242 -4.0621859121130477
leaf_weight=30.820764631032944 5.2864094674587276 4.6879480183124604 76.736056923866272 3.5575208365917197 4.5549565851688367 3.5575208365917197 6.8490588068962088 6.0178623497486097 4.4552130103111267 95.15537041425705 25.368115872144699 3.889999419450759 33.646832585334778 4.4219651520252228 8.3452124297618848
leaf_count=927 159 141 2308 107 137 107 206 181 134 2862 763 117 1012 133 251
internal_value=-3.59609 -3.3253 -3.43356 -3.20021 -2.34739 -2.62252 -2.87693 -2.44292 -2.0346 -4.00835 -3.704 -3.33957 -3.50628 -2.97352 -3.58818
internal_weight=317.351 191.541 165.973 89.2373 12.5344 25.5676 22.0101 15.161 10.4731 125.81 30.6545 76.7028 45.882 8.97692 41.992
internal_count=9545 5761 4992 2684 377 769 662 456 315 3784 922 2307 1380 270 1263
is_linear=0
shrinkage=1


Tree=21
num_leaves=16
num_cat=0
split_feature=0 16 17 16 2 14 6 14 8 4 2 16 1 1 17
split_gain=46.8781 72.92 18.6355 16.357 17.362 13.545 12.1859 9.87596 14.2699 13.9948 24.4224 45.2761 18.0905 15.1496 9.7347
threshold=1.5000000000000002 1.0000000180025095e-35 13.500000000000002 1.0000000180025095e-35 213.50000000000003 72.500000000000014 1.5000000000000002 1.0000000180025095e-35 4.5000000000000009 1.5000000000000002 205.50000000000003 1.0000000180025095e-35 1.5000000000000002 48.500000000000007 2.5000000000000004
decision_type=2 2 2 2 2 2 2 2 2 2 2 2 2 2 2
left_child=2 -2 7 4 -4 -3 -5 -1 9 10 13 -12 -11 -9 -7
right_child=1 5 3 6 -6 14 -8 8 -10 12 11 -13 -14 -15 -16
leaf_value=-2.2347046220395725 -1.8070219576908988 -1.4035551031539693 -1.69811620881466 -1.8953485674502413 -2.4393017755764372 -1.3099625912525432 -1.4997213586474627 -0.57493069758465976 -2.1596058766604069 -1.1429023890968126 -2.2036117025726329 -1.0692739599333279 -1.7610345189730094 -1.580457774922718 -0.97845375744201324
leaf_weight=22.702350407838821 287.15405380725861 206.16188478469849 51.744996875524521 190.82245883345604 81.196694701910019 132.32811453938484 131.51001182198524 53.176676630973816 37.42819932103157 57.471715897321701 62.584857881069183 80.378591984510422 268.74674266576767 20.861619293689728 267.92863994836807
leaf_count=111 1404 1008 253 933 397 647 643 260 183 281 306 393 1314 102 1310
internal_value=-1.56056 -1.39189 -1.70293 -1.85566 -2.15081 -1.19531 -1.73393 -1.58767 -1.56237 -1.52122 -1.32443 -1.56585 -1.65213 -0.858256 -1.08805
internal_weight=1952.2 893.573 1058.62 455.274 132.942 606.419 322.332 603.351 580.648 543.22 217.002 142.963 326.218 74.0383 400.257
internal_count=9545 4369 5176 2226 650 2965 1576 2950 2839 2656 1061 699 1595 362 1957
is_linear=0
shrinkage=1


Tree=22
num_leaves=16
num_cat=0
split_feature=16 2 14 13 17 2 2 17 12 2 1 13 4 6 14
split_gain=64.2617 21.4401 14.4785 6.19068 6.93572 6.8009 4.7419 10.8101 4.69688 4.9967 11.2087 6.81083 6.83255 5.1393 3.79866
threshold=1.0000000180025095e-35 251.50000000000003 6.5000000000000009 13.500000000000002 3.5000000000000004 306.50000000000006 69.500000000000014 5.5000000000000009 1.0000000180025095e-35 264.50000000000006 3.5000000000000004 35.500000000000007 1.5000000000000002 1.5000000000000002 1.0000000180025095e-35
decision_type=2 2 2 2 2 2 2 2 2 2 2 2 2 2 2
left_child=1 6 14 -3 -5 -6 -1 -8 -4 -10 -11 13 -13 -12 -2
right_child=2 3 8 4 5 -7 7 -9 9 10 11 12 -14 -15 -16
leaf_value=-1.6549483355539989 -1.8986236326048838 -1.9300780427500284 -1.3613444674339121 -1.7362768219684905 -1.3320643002580019 -1.6683611332458959 -1.4226286676573574 -0.96120863271198731 -1.3365444573804692 -1.0977408462415352 -1.400067290148937 -0.90889885465835718 -1.393634105544524 -1.9349262789002197 -1.4563913959162462
leaf_weight=35.908440887928009 29.513787031173706 75.506105154752731 137.73100614547729 259.47537764906883 120.02273392677307 120.51463037729263 147.32298693060875 77.473690956830978 153.22574433684349 931.15998083353043 51.649127304553986 46.730162799358368 76.981794506311417 27.546201229095459 56.814040035009384
leaf_count=146 120 307 560 1055 488 490 599 315 623 3786 210 190 313 112 231
internal_value=-1.33299 -1.55541 -1.20992 -1.66318 -1.62288 -1.50056 -1.31751 -1.26361 -1.18583 -1.16705 -1.14415 -1.35712 -1.21053 -1.58611 -1.60758
internal_weight=2347.58 836.224 1511.35 575.519 500.013 240.537 260.705 224.797 1425.02 1287.29 1134.07 202.907 123.712 79.1953 86.3278
internal_count=9545 3400 6145 2340 2033 978 1060 914 5794 5234 4611 825 503 322 351
is_linear=0
shrinkage=1


Tree=23
num_leaves=16
num_cat=0
split_feature=14 17 10 14 14 17 2 10 17 1 2 9 13 14 6
split_gain=43.8846 37.0674 26.6997 16.242 5.38438 100.797 18.2001 14.6442 30.4219 11.568 4.69569 5.16505 4.37855 4.33793 2.48699
threshold=524.50000000000011 13.500000000000002 1.0000000180025095e-35 1.0000000180025095e-35 62.500000000000007 229.50000000000003 213.50000000000003 1.5000000000000002 25.500000000000004 8.5000000000000018 306.50000000000006 41331.000000000007 46.500000000000007 778.50000000000011 1.5000000000000002
decision_type=2 2 2 2 2 2 2 2 2 2 2 2 2 2 2
left_child=3 13 -3 -1 10 7 -7 8 -6 12 -5 -12 -10 -2 -9
right_child=1 2 -4 4 5 6 -8 14 9 -11 11 -13 -14 -15 -16
leaf_value=-2.1687741460279581 -1.6424746515500308 0.18477110267849417 -0.98449780399966202 -1.723930478678497 -1.6126018852926596 0.28151892797362987 -0.76210191490947454 -1.6637668483080064 -0.90473317663740083 -1.3578272271483018 -1.4768800006243805 -1.7912825262438699 -0.28256422307117401 -1.3270293215353695 -1.7956105568787193
leaf_weight=47.420730918645859 75.065103203058243 24.879935055971146 90.801130503416061 356.61240246891975 293.88094228506088 24.029338985681534 54.863446533679962 350.44558095932007 21.902848809957504 33.598544776439667 218.39054104685783 68.685632675886154 23.391391932964325 103.98536959290504 241.78193297982216
leaf_count=223 353 117 427 1677 1382 113 258 1648 103 158 1027 323 110 489 1137
internal_value=-1.53098 -1.17422 -0.733019 -1.59158 -1.57537 -1.53101 -0.444234 -1.61986 -1.46459 -0.913224 -1.6473 -1.5521 -0.583425 -1.45928 -1.71759
internal_weight=2029.73 294.732 115.681 1735 1687.58 1043.89 78.8928 965.001 372.774 78.8928 643.689 287.076 45.2942 179.05 592.228
internal_count=9545 1386 544 8159 7936 4909 371 4538 1753 371 3027 1350 213 842 2785
is_linear=0
shrinkage=1


Tree=24
num_leaves=16
num_cat=0
split_feature=17 14 2 2 16 1 2 16 1 2 6 2 14 14 14
split_gain=314.311 68.6857 81.717 68.3043 219.172 91.2443 30.2838 57.561 52.8912 17.0445 15.6352 28.4476 11.8037 10.5711 8.0962
threshold=2.5000000000000004 1.0000000180025095e-35 221.00000000000003 299.50000000000006 1.0000000180025095e-35 3.5000000000000004 303.50000000000006 1.0000000180025095e-35 3.5000000000000004 282.50000000000006 2.5000000000000004 205.50000000000003 38.500000000000007 201.50000000000003 331.00000000000006
decision_type=2 2 2 2 2 2 2 2 2 2 2 2 2 2 2
left_child=1 -1 -3 5 13 -2 8 -8 14 -10 11 -7 -13 -5 -4
right_child=3 2 6 4 -6 10 7 -9 9 -11 -12 12 -14 -15 -16
leaf_value=0.47142186747935155 -2.0408674334826626 -1.5264546635571838 -1.1520098439383031 -0.012161459054975898 -1.6086273997458851 -1.7970443965470944 0.12688253228101165 -0.79998754995110355 -0.39682385424088951 -1.0829536063686176 -1.9025602936523747 -0.76727664835763532 -1.2657649233037336 -0.54536586037331691 -1.6333530229460491
leaf_weight=41.321744561195374 442.69698289036751 146.89376267790794 139.58686882257462 86.422916978597641 517.02573072910309 91.966077834367752 106.32790368795395 181.16057524085045 168.56248238682747 46.109019845724106 51.904142558574677 61.226731270551682 211.89992180466652 65.258120983839035 46.612943559885025
leaf_count=164 1757 583 554 343 2052 365 422 719 669 183 206 243 841 259 185
internal_value=-1.26446 -0.787093 -0.849354 -1.53824 -1.29854 -1.72468 -0.704863 -0.457184 -0.882489 -0.544197 -1.38901 -1.316 -1.15402 -0.241563 -1.27251
internal_weight=2404.98 876.575 835.254 1528.4 668.707 859.694 688.36 287.488 400.871 214.672 416.997 365.093 273.127 151.681 186.2
internal_count=9545 3479 3315 6066 2654 3412 2732 1141 1591 852 1655 1449 1084 602 739
is_linear=0
shrinkage=1


Tree=25
num_leaves=16
num_cat=0
split_feature=2 6 16 14 3 17 14 8 2 17 10 14 13 4 1
split_gain=37.5732 21.6319 8.38015 7.55654 11.8426 16.8854 4.61156 3.61341 3.1302 4.27665 2.74394 2.52794 5.13638 9.46411 2.80612
threshold=306.50000000000006 2.5000000000000004 1.0000000180025095e-35 778.50000000000011 1.0000000180025095e-35 25.500000000000004 6.5000000000000009 1.5000000000000002 213.50000000000003 11.500000000000002 1.5000000000000002 96.500000000000014 89.500000000000014 1.5000000000000002 3.5000000000000004
decision_type=2 2 2 2 2 2 2 2 2 2 2 2 2 2 2
left_child=1 3 10 4 8 7 -2 11 9 -1 -3 14 13 -13 -6
right_child=6 2 -4 -5 5 -7 -8 -9 -10 -11 -12 12 -14 -15 -16
leaf_value=-2.8895946723979566 -3.2813085089203224 -3.1076242819881248 -1.1479726917625102 -4.1135061991523854 -2.088103357926379 -3.9577589342715473 -4.1158907750641207 -3.069892532433447 -3.6448122797568736 -4.1379270019856751 -2.0471635313461212 -0.37282959812790484 -3.0007068937429793 -2.5059329680565199 -3.1684598926831677
leaf_weight=12.401451140642164 7.0152980983257285 6.8490588068962079 4.8874351680278769 16.224954843521118 3.8567515611648577 12.933416873216627 117.73066619038582 11.836237549781798 95.255113989114761 3.5242729783058158 3.7902558445930481 3.457777261734007 4.2224780023097983 5.2199137508869171 6.3835887908935547
leaf_count=373 211 206 147 488 116 389 3541 356 2865 106 114 104 127 157 192
internal_value=-3.64218 -3.36321 -2.2319 -3.4634 -3.3971 -2.98148 -4.06896 -2.62048 -3.5762 -3.16584 -2.72984 -2.3906 -2.09612 -1.65596 -2.76157
internal_weight=315.589 190.843 15.5267 175.316 159.091 47.9102 124.746 34.9767 111.181 15.9257 10.6393 23.1405 12.9002 8.67769 10.2403
internal_count=9492 5740 467 5273 4785 1441 3752 1052 3344 479 320 696 388 261 308
is_linear=0
shrinkage=1


Tree=26
num_leaves=16
num_cat=0
split_feature=10 2 10 2 16 2 17 17 16 1 14 4 0 2 2
split_gain=43.4231 68.7393 32.1387 54.2189 30.889 17.7133 16.4333 19.0045 15.4261 13.9145 8.59763 7.09494 7.61978 6.90096 6.4145
threshold=1.5000000000000002 306.50000000000006 1.0000000180025095e-35 221.00000000000003 1.0000000180025095e-35 292.50000000000006 229.50000000000003 2.5000000000000004 1.0000000180025095e-35 5.5000000000000009 140.50000000000003 2.5000000000000004 1.5000000000000002 292.50000000000006 205.50000000000003
decision_type=2 2 2 2 2 2 2 2 2 2 2 2 2 2 2
left_child=2 4 3 -1 10 -4 7 -6 -3 11 14 12 -5 -11 -2
right_child=1 8 5 9 6 -7 -8 -9 -10 13 -12 -13 -14 -15 -16
leaf_value=-0.90261300178984705 -1.3911320935282501 -2.1999568408268857 -1.8125908776132615 -1.71129044926476 -1.3760164562272212 -2.2953065609092085 -1.9759208443928564 -0.97287196376610052 -1.6869916627848323 -1.8293302064309298 -1.3614559280708403 -2.132266709067097 -1.3294599785040666 -2.3436373537266517 -1.9434282515733305
leaf_weight=91.422978669404984 28.429069429636002 69.743256658315659 189.79983043670654 158.71192717552185 177.52828967571259 126.80592119693756 22.906876087188721 342.58051291108131 367.73717147111893 55.426459103822708 75.879027038812637 26.383812636137009 77.92428383231163 49.290688723325729 80.78764334321022
leaf_count=447 139 341 928 776 868 620 112 1675 1798 271 371 129 381 241 395
internal_value=-1.57749 -1.45548 -1.76081 -1.5918 -1.26724 -2.00593 -1.14699 -1.11048 -1.76877 -1.76313 -1.62002 -1.6404 -1.58555 -2.07142 -1.79967
internal_weight=1941.36 1165.59 775.766 459.16 728.111 316.606 543.016 520.109 437.48 367.737 185.096 263.02 236.636 104.717 109.217
internal_count=9492 5699 3793 2245 3560 1548 2655 2543 2139 1798 905 1286 1157 512 534
is_linear=0
shrinkage=1


Tree=27
num_leaves=16
num_cat=0
split_feature=17 17 3 16 2 17 14 3 13 2 17 16 2 2 14
split_gain=99.7238 18.3792 12.8715 29.6784 8.09951 6.34418 4.95762 4.06983 8.73722 8.69455 3.87582 28.4613 13.0546 6.5806 10.1394
threshold=9.5000000000000018 1.5000000000000002 306.50000000000006 1.0000000180025095e-35 306.50000000000006 3.5000000000000004 228.50000000000003 276.50000000000006 107.50000000000001 299.50000000000006 229.50000000000003 1.0000000180025095e-35 265.50000000000006 243.50000000000003 201.50000000000003
decision_type=2 2 2 2 2 2 2 2 2 2 2 2 2 2 2
left_child=1 7 3 4 5 -3 -5 8 -1 -10 11 12 -2 -12 -15
right_child=10 2 -4 6 -6 -7 -8 -9 9 -11 13 -13 -14 14 -16
leaf_value=-1.625399532674922 -1.0270980085471804 -1.6659228429122295 -1.7824551644598088 -1.2554287804374815 -1.9083599745231732 -1.310558775862636 -1.0413563224981561 -1.8260183400142118 -1.0392409875771134 -1.756317259127167 -1.1558156391772412 -0.95563756804579336 -1.5597989338484153 -0.49540341604173999 -1.1840347002651135
leaf_weight=435.08241048455238 68.127658396959305 107.97127088904381 68.865503072738647 320.47053751349449 64.192486792802811 93.952222049236298 163.30962157249451 70.587140649557114 54.108609557151794 24.594822525978088 60.749211639165878 566.41876277327538 141.66617774963379 61.733004540205002 32.711113959550858
leaf_count=1769 277 439 280 1303 261 382 664 287 220 100 247 2303 576 251 133
internal_value=-1.29701 -1.4654 -1.36871 -1.33071 -1.59894 -1.50058 -1.18316 -1.60087 -1.56994 -1.26333 -1.04333 -1.07217 -1.38681 -0.899064 -0.733914
internal_weight=2334.54 1403.13 818.762 749.896 266.116 201.923 483.78 584.373 513.786 78.7034 931.406 776.213 209.794 155.193 94.4441
internal_count=9492 5705 3329 3049 1082 821 1967 2376 2089 320 3787 3156 853 631 384
is_linear=0
shrinkage=1


Tree=28
num_leaves=16
num_cat=0
split_feature=14 10 2 17 14 17 17 13 14 17 13 3 13 2 0
split_gain=47.3243 17.3603 12.4254 71.5489 11.6828 77.7693 5.78108 23.4095 5.7013 29.2965 16.5039 4.24518 4.01669 3.17315 2.86164
threshold=331.00000000000006 1.0000000180025095e-35 243.50000000000003 76.000000000000014 1.0000000180025095e-35 60.500000000000007 145.00000000000003 28.500000000000004 524.50000000000011 11.500000000000002 81.500000000000014 77.000000000000014 7.5000000000000009 69.500000000000014 1.5000000000000002
decision_type=2 2 2 2 2 2 2 2 2 2 2 2 2 2 2
left_child=2 8 3 13 -4 11 -7 -8 10 -10 -2 12 -6 -1 -3
right_child=1 14 4 -5 5 6 7 -9 9 -11 -12 -13 -14 -15 -16
leaf_value=-1.3727088238328118 -0.58514005172346173 -1.2718531372116715 -2.2310026301584367 -0.37051867334155997 -1.9197318340945237 -1.241369609497315 -0.5740920594836213 -1.6210847684968137 -1.3226813285955235 -0.042372404430709887 -1.801215360140987 -1.8610861832285366 -1.6877426914733069 -1.7463637979500777 -1.451435127721848
leaf_weight=26.368478178977966 21.902848809957504 166.07888272404671 34.661789864301682 51.886360287666321 82.720467835664749 78.042189449071884 72.938613027334213 30.196160495281219 39.978015303611755 32.322650671005249 22.753444880247116 240.08074083924294 763.40997308492661 164.59033960103989 190.53351974487305
leaf_count=124 103 781 163 244 389 367 343 142 188 152 107 1129 3590 774 896
internal_value=-1.53471 -1.25815 -1.61949 -1.41183 -1.65822 -1.64256 -1.03602 -0.880634 -0.923826 -0.750308 -1.20476 -1.74372 -1.71042 -1.69477 -1.3678
internal_weight=2018.46 473.569 1544.9 242.845 1302.05 1267.39 181.177 103.135 116.957 72.3007 44.6563 1086.21 846.13 190.959 356.612
internal_count=9492 2227 7265 1142 6123 5960 852 485 550 340 210 5108 3979 898 1677
is_linear=0
shrinkage=1


Tree=29
num_leaves=16
num_cat=0
split_feature=14 2 1 0 17 10 8 14 6 1 17 14 4 14 1
split_gain=98.2221 97.6559 120.591 84.933 51.3376 39.3111 23.6014 20.375 13.774 13.0844 11.3033 10.4584 7.74691 13.1101 77.9358
threshold=1.0000000180025095e-35 292.50000000000006 3.5000000000000004 1.5000000000000002 3.5000000000000004 1.5000000000000002 4.5000000000000009 380.50000000000006 1.5000000000000002 5.5000000000000009 1.5000000000000002 228.50000000000003 1.5000000000000002 524.50000000000011 2.5000000000000004
decision_type=2 2 2 2 2 2 2 2 2 2 2 2 2 2 2
left_child=-1 2 6 -4 7 -3 11 8 10 -6 -5 -2 -7 14 -14
right_child=1 5 3 4 9 12 -8 -9 -10 -11 -12 -13 13 -15 -16
leaf_value=0.04830637145305805 -1.7597472766892324 -0.84489529969421584 -1.6745021483698579 0.044995313684179417 -1.6288547570762573 -1.4046919120339565 -1.0525622479662946 -1.2535553424639367 -0.77522230317037299 -1.1210862932712651 -0.62028203432198703 -2.039715162245292 -1.4185809092075499 -1.6291670194349483 -0.37599602106849972
leaf_weight=54.675722986459732 360.30545562505722 431.35869932174683 252.21381893754005 58.455150842666626 78.108175694942474 197.0341722369194 38.298202276229858 43.33743941783905 93.22588711977005 144.87806782126427 45.353134274482727 211.89992180466652 225.7578239440918 51.652180701494217 105.06809440255165
leaf_count=217 1430 1712 1001 232 310 782 152 172 370 575 180 841 896 205 417
internal_value=-1.2766 -1.3076 -1.48608 -1.20754 -0.953358 -1.07347 -1.81256 -0.632763 -0.49622 -1.29895 -0.24566 -1.86343 -1.2436 -1.16062 -1.08746
internal_weight=2391.62 2336.95 1326.08 715.572 463.358 1010.87 610.504 240.372 197.034 222.986 103.808 572.205 579.512 382.478 330.826
internal_count=9492 9275 5263 2840 1839 4012 2423 954 782 885 412 2271 2300 1518 1313
is_linear=0
shrinkage=1


Tree=30
num_leaves=16
num_cat=0
split_feature=13 2 12 2 10 17 9 2 13 2 13 6 17 14 9
split_gain=5.98201 27.0023 5.6859 17.173 8.92051 6.96691 8.59553 6.09662 3.29068 4.24604 3.77758 5.59412 1.4011 1.87284 0.472374
threshold=10.500000000000002 306.50000000000006 1.0000000180025095e-35 213.50000000000003 1.5000000000000002 31.500000000000004 41326.500000000007 282.50000000000006 180.50000000000003 255.00000000000003 132.50000000000003 1.5000000000000002 13.500000000000002 31.500000000000004 41331.000000000007
decision_type=2 2 2 2 2 2 2 2 2 2 2 2 2 2 2
left_child=2 8 -1 -4 14 6 7 -6 10 -10 -2 -12 -3 -14 -5
right_child=1 12 3 4 5 -7 -8 -9 9 -11 11 -13 13 -15 -16
leaf_value=-4.4216734730010439 -3.4368835381264233 -3.9690076981705067 -1.1902467204458591 -4.281126155582216 -2.7271875052472963 -4.1710307569374683 -3.4732956284361647 -0.98428765270058438 -3.113972345712825 -4.4216734730010439 -3.4408976275348797 -1.970944693712753 -3.7254437061577792 -4.2782213620584573 -3.8260868209687855
leaf_weight=3.7902558445930472 146.22408074140549 59.646657764911652 4.0229908525943747 7.1150416731834429 4.7211958765983599 3.9897429943084708 7.3810245394706717 3.4910251200199127 3.8235037028789503 7.0817938148975372 6.1176059246063215 4.4884608685970306 7.1815373897552481 41.825805723667145 3.358033686876297
leaf_count=114 4398 1794 121 214 142 120 222 105 115 213 184 135 216 1258 101
internal_value=-3.63251 -3.68358 -3.25978 -3.13056 -3.39027 -2.99186 -2.69015 -1.98628 -3.43202 -3.96318 -3.39509 -2.81882 -4.07194 -4.19722 -4.13522
internal_weight=314.259 276.389 37.8693 34.0791 30.0561 19.583 15.5932 8.21222 167.735 10.9053 156.83 10.6061 108.654 49.0073 10.4731
internal_count=9452 8313 1139 1025 904 589 469 247 5045 328 4717 319 3268 1474 315
is_linear=0
shrinkage=1


Tree=31
num_leaves=16
num_cat=0
split_feature=5 1 0 2 5 2 6 2 14 6 2 13 16 8 14
split_gain=36.1289 72.4326 42.695 27.8637 24.0445 18.5975 16.2569 14.8987 12.4429 9.2201 9.00021 14.0121 12.0292 8.6828 7.67329
threshold=1.5000000000000002 3.5000000000000004 1.5000000000000002 306.50000000000006 2.5000000000000004 292.50000000000006 2.5000000000000004 266.50000000000006 24.500000000000004 1.5000000000000002 265.50000000000006 16.500000000000004 1.0000000180025095e-35 2.5000000000000004 84.500000000000014
decision_type=2 2 2 2 2 2 2 2 2 2 2 2 2 2 2
left_child=3 2 9 10 6 -6 -3 8 -4 -2 11 -1 -12 -10 -13
right_child=1 4 7 -5 5 -7 -8 -9 13 -11 12 14 -14 -15 -16
leaf_value=-1.637358935997558 -1.7172046254924256 -1.9903240815663443 -1.8168491489521905 -1.876904443555488 -1.227061727889424 -2.1169601209171716 -1.3032921904286647 -0.56390693804023062 -1.0210155787446247 -1.4378601976454954 -1.8975656907682368 -0.43826333918615146 -1.2295741787383043 -1.532522857411186 -1.0125508708454158
leaf_weight=28.429069429636002 300.03917160630226 581.46650639176369 29.860749185085297 73.220193207263947 88.968670517206192 31.90600597858429 36.610096603631973 41.518712908029556 162.18886372447014 194.91297242045403 31.90600597858429 32.110531657934189 173.8468274474144 41.723238587379456 84.469105571508408
leaf_count=139 1467 2843 146 358 435 156 179 203 793 953 156 157 850 204 413
internal_value=-1.57373 -1.64619 -1.43161 -1.31581 -1.86986 -1.46196 -1.94963 -1.11592 -1.21396 -1.6072 -1.19868 -1.00788 -1.33316 -1.12568 -0.85437
internal_weight=1933.18 1509.19 770.244 423.982 738.951 120.875 618.077 275.292 233.773 494.952 350.762 145.009 205.753 203.912 116.58
internal_count=9452 7379 3766 2073 3613 591 3022 1346 1143 2420 1715 709 1006 997 570
is_linear=0
shrinkage=1


Tree=32
num_leaves=16
num_cat=0
split_feature=2 16 17 14 2 1 8 17 1 2 14 14 6 10 17
split_gain=3.38097 101.34 52.0329 10.6697 18.6999 7.60149 8.52868 7.77416 6.63242 7.75309 5.34839 6.64856 4.02643 3.41951 11.9501
threshold=28.500000000000004 1.0000000180025095e-35 6.5000000000000009 84.500000000000014 306.50000000000006 3.5000000000000004 1.5000000000000002 37.500000000000007 1.5000000000000002 266.50000000000006 18.500000000000004 159.50000000000003 1.5000000000000002 1.0000000180025095e-35 1.5000000000000002
decision_type=2 2 2 2 2 2 2 2 2 2 2 2 2 2 2
left_child=-1 3 13 -2 -5 6 7 10 -8 -10 -4 -12 -13 -3 -15
right_child=1 2 5 4 -6 -7 8 -9 9 -11 11 12 -14 14 -16
leaf_value=-1.6539169057252119 -1.719314789335223 -1.1870917652162998 -1.3474369747686568 -1.3564800674193207 -1.7743879097275119 -1.1930335762174571 -0.86332594196011869 -0.73909021908274686 -1.0022782931673169 -1.6123751802071775 -0.75947162816503255 -0.96019342762208026 -1.3704557198374474 -1.5391900088725063 -1.2468669522458251
leaf_weight=26.562408328056335 319.97864106297493 127.89307713508606 34.924647986888885 346.54104939103127 154.94738191366196 117.80919989943504 53.124816656112671 265.62408328056335 40.581457167863846 42.794991195201874 114.11997652053833 65.668176144361496 37.630078464746475 238.56977850198746 337.93286150693893
leaf_count=108 1301 520 142 1409 630 479 216 1080 165 174 464 267 153 970 1374
internal_value=-1.29919 -1.29509 -1.13847 -1.57664 -1.4856 -0.959194 -0.917102 -0.858499 -1.13947 -1.31543 -0.984193 -0.925844 -1.10965 -1.33502 -1.36784
internal_weight=2324.7 2298.14 1476.67 821.467 501.488 772.277 654.468 517.967 136.501 83.3764 252.343 217.418 103.298 704.396 576.503
internal_count=9452 9344 6004 3340 2039 3140 2661 2106 555 339 1026 884 420 2864 2344
is_linear=0
shrinkage=1


Tree=33
num_leaves=16
num_cat=0
split_feature=14 0 2 17 10 16 10 14 14 17 2 17 14 17 13
split_gain=38.0007 17.358 15.6039 15.4547 8.82449 8.38026 21.9114 8.31026 5.76987 93.8372 25.1243 14.5794 4.09639 15.5631 4.05792
threshold=524.50000000000011 1.5000000000000002 306.50000000000006 13.500000000000002 1.5000000000000002 1.0000000180025095e-35 1.0000000180025095e-35 1.0000000180025095e-35 6.5000000000000009 49.000000000000007 213.50000000000003 3.5000000000000004 228.50000000000003 387.00000000000006 54.500000000000007
decision_type=2 2 2 2 2 2 2 2 2 2 2 2 2 2 2
left_child=1 7 3 -2 -5 -4 -7 -1 -9 11 -11 -10 13 -12 -3
right_child=2 14 5 4 -6 6 -8 8 9 10 12 -13 -14 -15 -16
leaf_value=-2.0780965066785773 -1.5886438287855971 -1.7681490229793924 -1.3316023155084664 -0.56831936093851754 -1.3066612879858299 0.11945742834092332 -1.0867408443007447 -1.1248699082383535 -1.8538556162620261 -0.34587865260163397 -1.4044830437808191 -1.5549857132163374 -0.8433243055177635 -0.64492788121416467 -1.6133844864718472
leaf_weight=25.517882108688354 125.03762233257294 515.24856957793236 30.408809512853622 28.282319337129593 37.851525127887726 22.115497827529907 47.208081901073456 39.340068250894547 339.81313008069992 50.3978171646595 110.15219110250473 314.08259895443916 36.362982004880905 35.725034952163696 252.41438385844231
leaf_count=120 588 2423 143 133 178 104 222 185 1598 237 518 1477 171 168 1187
internal_value=-1.54883 -1.60539 -1.21458 -1.38186 -0.990907 -0.893928 -0.701941 -1.51513 -1.49962 -1.51625 -0.970797 -1.7103 -1.14362 -1.21847 -1.71726
internal_weight=2009.96 1719.05 290.904 191.171 66.1338 99.7324 69.3236 951.392 925.874 886.534 232.638 653.896 182.24 145.877 767.663
internal_count=9452 8084 1368 899 311 469 326 4474 4354 4169 1094 3075 857 686 3610
is_linear=0
shrinkage=1


Tree=34
num_leaves=16
num_cat=0
split_feature=10 1 17 2 16 17 2 8 14 2 2 14 2 14 8
split_gain=48.9418 217.048 139.237 92.6784 216.726 77.283 51.0696 26.714 23.7583 34.2625 18.3069 18.252 12.6733 12.6574 11.9653
threshold=1.5000000000000002 3.5000000000000004 1.5000000000000002 213.50000000000003 1.0000000180025095e-35 9.5000000000000018 292.50000000000006 3.5000000000000004 84.500000000000014 306.50000000000006 300.50000000000006 443.00000000000006 300.50000000000006 24.500000000000004 1.5000000000000002
decision_type=2 2 2 2 2 2 2 2 2 2 2 2 2 2 2
left_child=3 2 11 -1 6 8 13 12 -3 -10 -7 -2 -4 -5 -6
right_child=1 5 7 4 14 10 -8 -9 9 -11 -12 -13 -14 -15 -16
leaf_value=-1.6992374246547146 -0.78377825938674794 -0.30500236908682166 -2.0370412566774991 -0.11079584781008012 -1.5522470709444125 -1.7727020446618877 -0.025369869970165437 -1.3560167346247651 -1.0733366020340489 -0.049597062183587948 -0.9067605886834329 -1.6728189404829021 -1.7599031993174621 -0.86191701629839512 -1.0861333863221805
leaf_weight=198.54594337940216 170.57817724347115 163.52324524521828 380.21044233441353 25.952071279287338 308.90523678064346 83.399374693632126 186.95569795370102 97.257276833057404 138.07509768009186 42.833515703678131 34.518774420022964 26.707956850528717 291.51986864209175 165.53894010186195 67.021853983402252
leaf_count=788 677 649 1509 103 1226 331 742 386 548 170 137 106 1157 657 266
internal_value=-1.26687 -1.38395 -1.65358 -1.09135 -0.931357 -0.820467 -0.397148 -1.84585 -0.581248 -0.830947 -1.51921 -0.904134 -1.91677 -0.76012 -1.46915
internal_weight=2381.54 1428.62 966.274 952.92 754.374 462.35 378.447 768.988 344.432 180.909 117.918 197.286 671.73 191.491 375.927
internal_count=9452 5670 3835 3782 2994 1835 1502 3052 1367 718 468 783 2666 760 1492
is_linear=0
shrinkage=1


Tree=35
num_leaves=16
num_cat=0
split_feature=14 6 2 13 3 2 4 3 14 8 4 14 9 10 13
split_gain=14.1413 26.9654 21.5691 17.103 12.5897 15.2604 5.49128 6.75659 5.24524 1.46409 1.24734 1.24488 1.22854 2.39082 3.03582
threshold=1.0000000180025095e-35 2.5000000000000004 292.50000000000006 19.500000000000004 189.50000000000003 266.50000000000006 1.5000000000000002 292.50000000000006 108.50000000000001 4.5000000000000009 1.5000000000000002 443.00000000000006 41335.500000000007 1.0000000180025095e-35 31.500000000000004
decision_type=2 2 2 2 2 2 2 2 2 2 2 2 2 2 2
left_child=-1 2 4 -3 -2 6 7 -6 -5 11 -10 12 -4 -14 -15
right_child=1 3 9 8 5 -7 -8 -9 10 -11 -12 -13 13 14 -16
leaf_value=-2.2242578801149051 -3.6363699239767873 -0.56563168740758174 -3.998773960597227 -3.9161755582509761 -1.9427894679766733 -1.5722615430151361 -3.5090931667265854 -3.3946496608381014 -2.1080484016449645 -4.4216734730010439 -2.8592253728644712 -4.2138867653835721 -4.2674318015773043 -3.1191207753478185 -3.9302171669940336
leaf_weight=7.2812809646129599 114.60536751151085 3.8899994194507626 78.032723397016525 3.9564951360225669 6.0511102080345136 6.3170930743217459 26.299055904150009 6.8158109486103058 3.8899994194507581 8.0127338469028455 5.1201701760292053 19.250509947538376 6.4833323657512691 8.4449560046196002 10.173844635486601
leaf_count=219 3447 117 2347 119 182 190 791 205 117 241 154 579 195 254 306
internal_value=-3.60165 -3.63428 -3.70563 -2.40467 -3.45971 -3.01456 -3.24718 -2.71186 -2.95638 -4.00756 -2.53492 -3.98044 -3.93687 -3.74444 -3.56233
internal_weight=314.624 307.343 290.487 16.8567 160.088 45.4831 39.166 12.8669 12.9667 130.398 9.01017 122.385 103.135 25.1021 18.6188
internal_count=9463 9244 8737 507 4815 1368 1178 387 390 3922 271 3681 3102 755 560
is_linear=0
shrinkage=1


Tree=36
num_leaves=16
num_cat=0
split_feature=16 2 10 8 6 14 14 1 10 10 10 2 10 2 14
split_gain=85.7759 86.4606 14.0462 33.4576 9.50971 6.0988 5.74917 7.45464 12.2105 5.48331 5.01582 44.4551 7.47851 9.09216 7.45019
threshold=1.0000000180025095e-35 306.50000000000006 1.5000000000000002 4.5000000000000009 1.5000000000000002 180.50000000000003 524.50000000000011 2.5000000000000004 1.5000000000000002 1.0000000180025095e-35 1.0000000180025095e-35 205.50000000000003 1.5000000000000002 299.50000000000006 290.50000000000006
decision_type=2 2 2 2 2 2 2 2 2 2 2 2 2 2 2
left_child=10 2 9 -4 6 -6 7 8 -3 -2 14 -12 -13 -14 -1
right_child=1 4 3 -5 5 -7 -8 -9 -10 -11 11 12 13 -15 -16
leaf_value=-1.5898696537035211 -1.3585667992580381 -2.098154884047263 -1.0359425539262208 -2.1045882545553893 -1.64339967268862 -1.2625482718278422 -2.1058546660727373 -1.9662197301345701 -1.5094609701449326 -1.8715747129805582 -1.3494986269126097 -2.1935201409912577 -1.7632984509222429 -2.2036117025726329 -2.0830331471828001
leaf_weight=134.37337133288383 121.28372785449028 44.995649456977844 508.65536454319954 31.087903261184692 134.57789701223373 61.153178125619888 51.94952255487442 103.08094239234924 162.39338940382004 25.156658560037613 114.7389061152935 198.18538329005241 131.10096046328545 73.015667527914047 39.677981793880463
leaf_count=657 593 220 2487 152 658 299 254 504 794 123 561 969 641 357 194
internal_value=-1.56664 -1.40975 -1.17202 -1.09749 -1.70203 -1.52441 -1.79795 -1.74643 -1.63719 -1.4467 -1.84913 -1.89856 -2.05515 -1.92081 -1.70229
internal_weight=1935.43 1244.33 686.184 539.743 558.151 195.731 362.42 310.47 207.389 146.44 691.092 517.041 402.302 204.117 174.051
internal_count=9463 6084 3355 2639 2729 957 1772 1518 1014 716 3379 2528 1967 998 851
is_linear=0
shrinkage=1


Tree=37
num_leaves=16
num_cat=0
split_feature=17 16 14 17 14 7 14 16 2 3 6 2 2 4 10
split_gain=76.4639 42.3672 8.12829 6.79833 7.90255 5.78276 13.7137 7.73981 8.91164 6.69575 3.97387 14.2384 8.56863 4.49076 3.50289
threshold=6.5000000000000009 1.0000000180025095e-35 24.500000000000004 76.000000000000014 18.500000000000004 1.5000000000000002 180.50000000000003 1.0000000180025095e-35 251.50000000000003 265.50000000000006 1.5000000000000002 292.50000000000006 306.50000000000006 1.5000000000000002 1.5000000000000002
decision_type=2 2 2 2 2 2 2 2 2 2 2 2 2 2 2
left_child=5 2 -2 4 -3 6 -1 8 -8 -9 12 -12 13 -4 -5
right_child=1 3 10 14 -6 -7 7 9 -10 -11 11 -13 -14 -15 -16
leaf_value=-1.5585704988825875 -1.8680069429582149 -1.3942223357768579 -0.97183842718277846 -1.003158357319931 -1.023254575170635 -1.803190475094874 -1.1436695708125582 -1.1547649294558842 -1.6386856003527839 -1.5518824689241986 -0.98724262086502668 -1.7519511958948688 -1.7852153656657352 -1.4670052349427491 -0.75812104568976157
leaf_weight=746.2069154381752 40.827405393123627 65.176279693841934 29.267838805913925 103.29825460910797 482.79636618494987 56.322143584489822 50.665334403514862 219.63176515698433 128.87687003612518 52.632920205593109 72.554726451635361 36.646285563707352 59.519470512866974 48.943696826696396 134.04178276658058
leaf_count=3034 166 265 119 420 1963 229 206 893 524 214 295 149 242 199 545
internal_value=-1.32239 -1.12642 -1.45468 -1.00614 -1.06738 -1.49004 -1.47532 -1.33782 -1.499 -1.23153 -1.38634 -1.24387 -1.49929 -1.28171 -0.864769
internal_weight=2327.41 1073.07 287.759 785.313 547.973 1254.34 1198.01 451.807 179.542 272.265 246.932 109.201 137.731 78.2115 237.34
internal_count=9463 4363 1170 3193 2228 5100 4871 1837 730 1107 1004 444 560 318 965
is_linear=0
shrinkage=1


Tree=38
num_leaves=16
num_cat=0
split_feature=10 14 17 17 6 17 0 17 3 14 14 14 10 17 16
split_gain=17.5666 43.3828 58.5113 25.5935 12.2036 36.2281 12.4399 34.3603 12.0632 11.4088 4.0056 3.83882 4.94426 8.34481 3.63402
threshold=1.5000000000000002 380.50000000000006 25.500000000000004 13.500000000000002 1.5000000000000002 94.000000000000014 1.5000000000000002 229.50000000000003 248.50000000000003 24.500000000000004 62.500000000000007 45.500000000000007 1.0000000180025095e-35 5.5000000000000009 1.0000000180025095e-35
decision_type=2 2 2 2 2 2 2 2 2 2 2 2 2 2 2
left_child=1 2 11 14 6 -6 7 -2 -4 -8 -10 -1 13 -13 -3
right_child=4 3 8 -5 5 -7 9 -9 10 -11 -12 12 -14 -15 -16
leaf_value=-1.8775658741178192 -1.4983565050295273 -1.4301508175498936 -1.221245210951819 -0.50375298264599899 -1.8125148177111297 -0.85907701593540953 -2.0655801219386021 -0.51140657294270575 -0.92533905447635267 -1.5754064338459628 -0.34534237884723717 -1.9186868608377263 -1.5209697044783101 -1.4170728290432373 -1.076407764642856
leaf_weight=141.62424570322037 312.38140681385994 65.283248394727707 138.64715945720673 68.472983658313751 441.67200949788094 43.805697619915009 55.926691621541977 39.765366286039352 24.029338985681534 314.50789698958397 23.604040950536728 125.46292036771774 119.72139689326286 45.081591725349426 52.311658322811127
leaf_count=666 1469 307 652 322 2077 206 263 187 113 1479 111 590 563 212 246
internal_value=-1.52763 -1.41312 -1.54054 -0.989784 -1.60386 -1.72648 -1.52148 -1.38691 -1.07209 -1.64941 -0.63793 -1.74259 -1.67674 -1.78609 -1.27279
internal_weight=2012.3 804.239 618.171 186.068 1208.06 485.478 722.581 352.147 186.281 370.435 47.6334 431.89 290.266 170.545 117.595
internal_count=9463 3782 2907 875 5681 2283 3398 1656 876 1742 224 2031 1365 802 553
is_linear=0
shrinkage=1


Tree=39
num_leaves=16
num_cat=0
split_feature=6 14 17 16 2 14 14 17 8 14 17 14 1 6 8
split_gain=30.2287 87.8611 291.217 268.662 116.943 26.625 17.1642 15.8121 12.9551 12.2519 9.92049 7.84168 6.3975 6.39385 6.19898
threshold=2.5000000000000004 1.0000000180025095e-35 2.5000000000000004 1.0000000180025095e-35 292.50000000000006 778.50000000000011 18.500000000000004 16.500000000000004 3.5000000000000004 180.50000000000003 11.500000000000002 124.50000000000001 3.5000000000000004 1.5000000000000002 3.5000000000000004
decision_type=2 2 2 2 2 2 2 2 2 2 2 2 2 2 2
left_child=1 -1 5 4 6 14 -4 13 9 -5 11 -2 -7 -8 -3
right_child=10 2 3 8 -6 12 7 -9 -10 -11 -12 -13 -14 -15 -16
leaf_value=0.047678785340002694 -1.3069568741742295 -0.74875342106221932 -0.57725922045789491 -1.7521592402381603 -0.16576233922629924 -1.7397025565934621 -0.96772384931533739 -1.7206937270099047 -1.4465209912366472 -1.9864916792404679 -2.1567034459939536 -1.897712647909201 -1.0927647222937136 -1.4091108898150131 -0.44084722960260958
leaf_weight=51.400218844413757 52.911989986896515 621.84186327457428 30.99130842089653 594.8819445669651 155.96438953280449 29.479537278413773 74.8326715528965 81.383679836988449 91.714115977287292 357.02995148301125 39.558011561632156 39.054087847471237 31.747193992137909 58.455150842666626 73.068938553333282
leaf_count=204 210 2468 123 2361 619 117 297 323 364 1417 157 155 126 232 290
internal_value=-1.27195 -1.24474 -1.27492 -1.538 -0.842987 -0.772077 -1.27294 -1.37337 -1.80547 -1.84005 -1.73795 -1.55783 -1.40425 -1.1613 -0.716377
internal_weight=2384.32 2252.79 2201.39 1445.25 401.627 756.138 245.663 214.672 1043.63 951.912 131.524 91.9661 61.2267 133.288 694.911
internal_count=9463 8941 8737 5736 1594 3001 975 852 4142 3778 522 365 243 529 2758
is_linear=0
shrinkage=1


Tree=40
num_leaves=16
num_cat=0
split_feature=2 17 2 4 6 5 0 14 14 2 4 13 1 14 17
split_gain=31.1103 15.2144 9.09986 7.06747 5.90841 6.72983 20.3594 7.42762 5.9111 5.89319 4.53615 3.68443 3.45934 3.06447 2.31183
threshold=306.50000000000006 16.500000000000004 282.50000000000006 2.5000000000000004 2.5000000000000004 1.5000000000000002 1.5000000000000002 62.500000000000007 84.500000000000014 292.50000000000006 2.5000000000000004 50.500000000000007 6.5000000000000009 201.50000000000003 2.5000000000000004
decision_type=2 2 2 2 2 2 2 2 2 2 2 2 2 2 2
left_child=1 2 4 9 5 6 8 -8 -1 12 11 -9 -4 -3 -13
right_child=-2 13 3 -5 -6 -7 7 10 -10 -11 -12 14 -14 -15 -16
leaf_value=-0.62553136563039002 -4.0626410419604371 -3.6955420973657813 -2.3473889262680081 -3.8748166379532432 -2.5890170544716766 -3.5905266425311568 -4.0729531723908519 -2.1351083440000078 -2.4165317444924423 -3.0096018332062537 -3.7817346234770217 -2.6780719699500857 -1.0797705921533747 -4.218105784827582 -3.7055514271051146
leaf_weight=3.424529403448104 122.55160564184189 26.166064471006393 4.8209394514560717 3.6572644114494315 9.2761524617671949 77.002039790153503 11.470511108636854 5.6853837668895748 3.9897429943084717 7.0817938148975363 6.2505973577499381 4.5882044434547407 3.8899994194507599 19.649484246969223 4.1892301440238953
leaf_count=103 3686 787 145 110 279 2316 345 171 120 213 188 138 117 591 126
internal_value=-3.66935 -3.41718 -3.25877 -2.62219 -3.35714 -3.41824 -3.08323 -3.42739 -1.5893 -2.3321 -3.06989 -2.76225 -1.78132 -3.91966 -3.16846
internal_weight=313.694 191.142 145.326 19.45 125.876 116.6 39.5982 32.1839 7.41427 15.7927 20.7134 14.4628 8.71094 45.8155 8.77743
internal_count=9435 5749 4371 585 3786 3507 1191 968 223 475 623 435 262 1378 264
is_linear=0
shrinkage=1


Tree=41
num_leaves=16
num_cat=0
split_feature=6 0 1 16 2 17 8 16 2 10 2 1 4 2 10
split_gain=29.6591 35.8145 77.1057 32.2812 42.8516 16.5518 20.7803 15.683 15.2263 15.21 35.913 13.0538 10.917 7.62456 6.71983
threshold=1.5000000000000002 1.5000000000000002 2.5000000000000004 1.0000000180025095e-35 292.50000000000006 145.00000000000003 3.5000000000000004 1.0000000180025095e-35 205.50000000000003 1.5000000000000002 205.50000000000003 2.5000000000000004 1.5000000000000002 300.50000000000006 1.0000000180025095e-35
decision_type=2 2 2 2 2 2 2 2 2 2 2 2 2 2 2
left_child=1 9 -3 4 8 6 11 -4 14 10 -1 -5 -11 -13 -2
right_child=3 2 7 5 -6 -7 -8 -9 -10 12 -12 13 -14 -15 -16
leaf_value=-1.4004915933881945 -0.81162454489138747 -1.0343259264501228 -2.0373612346953358 -0.94464530594936924 -2.2618812123916969 -1.7552204950168449 -1.7958665536156186 -1.588872877476758 -1.6607590042582756 -1.4415834710464512 -2.2282827070844391 -1.1813995866392146 -1.83035018549025 -1.6816537118915076 -1.3490796153959004
leaf_weight=69.947782337665558 36.610096603631973 216.38816875219345 154.62141358852386 210.66144973039627 89.173196196556091 58.903395652770996 49.290688723325729 157.28024742007256 143.5770269036293 107.37598165869713 209.02524429559708 98.17232608795166 220.68320801854134 44.177546739578247 63.812011957168579
leaf_count=342 179 1058 756 1030 436 288 241 769 702 525 1022 480 1079 216 312
internal_value=-1.57968 -1.68338 -1.49299 -1.43147 -1.66865 -1.26013 -1.18764 -1.81121 -1.45184 -1.84907 -2.02073 -1.10272 -1.7031 -1.33665 -1.15314
internal_weight=1929.7 1135.32 528.29 794.378 333.172 461.205 402.302 311.902 243.999 607.032 278.973 353.011 328.059 142.35 100.422
internal_count=9435 5551 2583 3884 1629 2255 1967 1525 1193 2968 1364 1726 1604 696 491
is_linear=0
shrinkage=1


Tree=42
num_leaves=16
num_cat=0
split_feature=2 14 10 1 8 14 17 10 17 2 14 2 14 5 13
split_gain=6.81257 23.9386 5.30013 74.3172 11.5574 10.6983 28.0315 9.18748 8.03294 13.8196 6.4385 19.4002 6.1419 6.51271 5.92505
threshold=28.500000000000004 1.0000000180025095e-35 2.5000000000000004 3.5000000000000004 1.5000000000000002 1041.5000000000002 4.5000000000000009 1.0000000180025095e-35 5.5000000000000009 305.50000000000006 38.500000000000007 306.50000000000006 24.500000000000004 1.5000000000000002 97.500000000000014
decision_type=2 2 2 2 2 2 2 2 2 2 2 2 2 2 2
left_child=-1 -2 3 4 7 6 -4 -3 9 14 -10 -12 -6 -14 -5
right_child=1 2 5 8 12 -7 -8 -9 10 -11 11 -13 13 -15 -16
leaf_value=-1.7759457244344383 -1.9508723011047131 -0.83182903652016082 -1.5342987143443889 -1.5381346064060835 -1.6463332993581608 -0.59232840971320944 -1.0061691031051903 -1.0961102658283428 -1.6488122021657925 -1.8388819693658811 -1.1095926352244887 -1.6374007196926386 -1.4295977513885854 -1.0926857277791413 -1.2285276519432053
leaf_weight=28.529994130134583 52.632920205593109 198.72616600990295 165.03125914931297 309.64881560206413 34.186803311109543 29.759735256433487 257.01589539647102 389.09009236097336 72.554726451635361 144.37160822749138 178.06651508808136 114.36592474579811 82.884551912546158 186.42875474691391 77.227742731571198
leaf_count=116 214 808 671 1259 139 121 1045 1582 295 587 724 465 337 758 314
internal_value=-1.2903 -1.28426 -1.26859 -1.29305 -1.08859 -1.17182 -1.21268 -1.00676 -1.49639 -1.57486 -1.38217 -1.31601 -1.24706 -1.19637 -1.47633
internal_weight=2320.52 2291.99 2239.36 1787.55 891.316 451.807 422.047 587.816 896.235 531.248 364.987 292.432 303.5 269.313 386.877
internal_count=9435 9319 9105 7268 3624 1837 1716 2390 3644 2160 1484 1189 1234 1095 1573
is_linear=0
shrinkage=1


Tree=43
num_leaves=16
num_cat=0
split_feature=14 0 2 10 13 6 17 3 10 10 14 14 4 12 17
split_gain=43.8613 21.7739 20.1447 21.4249 9.70721 15.9759 93.5996 8.36027 5.89423 3.56471 3.55024 3.3575 4.49441 6.52137 3.25927
threshold=524.50000000000011 1.5000000000000002 306.50000000000006 1.0000000180025095e-35 3.5000000000000004 1.5000000000000002 229.50000000000003 189.50000000000003 1.0000000180025095e-35 1.5000000000000002 84.500000000000014 31.500000000000004 1.5000000000000002 1.0000000180025095e-35 1.5000000000000002
decision_type=2 2 2 2 2 2 2 2 2 2 2 2 2 2 2
left_child=1 4 9 -4 -1 6 11 10 -3 -2 -8 14 -13 -14 -6
right_child=2 8 3 -5 5 -7 7 -9 -10 -11 -12 12 13 -15 -16
leaf_value=-1.0869940253361869 -1.219091061790845 -1.5267590074428066 -0.11368352702772166 -1.1195460861349706 -2.0184862799592169 -1.6880586114579776 -0.29929278471969001 0.17914407842787261 -1.7651008009526099 -1.5001305933993612 -0.83470126911993958 -1.6843028409164427 -1.9265255996208095 -1.3923029261340829 -1.6227668912966546
leaf_weight=53.374903410673141 79.743381589651108 123.33643019199371 29.983511477708817 72.088016957044601 30.196160495281219 361.50332987308502 24.45463702082634 21.264901757240295 653.68308001756668 103.98536959290504 25.092584073543549 130.77914580702782 25.730531126260757 204.14305686950684 66.984440535306931
leaf_count=251 375 580 141 339 142 1700 115 100 3074 489 118 615 121 960 315
internal_value=-1.54304 -1.6033 -1.18027 -0.824074 -1.50122 -1.52605 -1.41527 -0.345342 -1.72727 -1.37815 -0.570444 -1.58075 -1.5363 -1.4521 -1.74573
internal_weight=2006.34 1720.54 285.8 102.072 943.524 890.149 528.645 70.8121 777.02 183.729 49.5472 457.833 360.653 229.874 97.1806
internal_count=9435 8091 1344 480 4437 4186 2486 333 3654 864 233 2153 1696 1081 457
is_linear=0
shrinkage=1


Tree=44
num_leaves=16
num_cat=0
split_feature=16 1 17 14 6 2 5 2 4 17 2 14 2 14 2
split_gain=364.927 71.0786 93.2545 30.0735 24.7681 97.224 23.3712 102.86 22.3766 45.0306 20.9015 19.7541 17.9787 15.6292 14.5183
threshold=1.0000000180025095e-35 2.5000000000000004 2.5000000000000004 96.500000000000014 2.5000000000000004 264.50000000000006 1.5000000000000002 292.50000000000006 2.5000000000000004 1.5000000000000002 300.50000000000006 257.00000000000006 306.50000000000006 12.500000000000002 264.50000000000006
decision_type=2 2 2 2 2 2 2 2 2 2 2 2 2 2 2
left_child=3 8 11 4 5 -1 -5 14 12 -10 -4 -3 13 -2 -8
right_child=1 2 10 6 -6 -7 7 -9 9 -11 -12 -13 -14 -15 -16
leaf_value=-1.2274185562749134 -1.2927823935350777 -0.48841502134243464 -1.7510703660630282 -1.3777067314278633 -1.2831803260053296 -0.06493205422807713 -1.4523993711672654 -0.1321878343016909 -0.77916591861051865 -1.7477029891425722 -1.2747871710264707 -1.1971046492208031 -1.6647795493057269 -2.0451064102434762 -0.96994273002245623
leaf_weight=106.32790368795395 30.235422849655151 129.76035639643669 235.33237451314926 87.430764406919479 39.054087847471237 222.48231980204582 115.90245425701141 143.87022039294243 68.53362512588501 160.2477411031723 151.42907610535622 56.439455986022949 376.68297633528709 318.47978734970093 135.05155539512634
leaf_count=422 120 515 934 347 155 883 460 571 272 636 601 224 1495 1264 536
internal_value=-1.27075 -1.56308 -1.28467 -0.745624 -0.530273 -0.440847 -0.909894 -0.8063 -1.73025 -1.45757 -1.56459 -0.703228 -1.81625 -1.97988 -1.19276
internal_weight=2377.26 1527.14 572.961 850.119 367.864 328.81 482.255 394.824 954.18 228.781 386.761 186.2 725.398 348.715 250.954
internal_count=9435 6061 2274 3374 1460 1305 1914 1567 3787 908 1535 739 2879 1384 996
is_linear=0
shrinkage=1


Tree=45
num_leaves=16
num_cat=0
split_feature=14 2 0 5 2 2 2 14 6 6 17 13 17 5 2
split_gain=9.90662 29.4832 14.7227 11.0876 11.6403 9.63358 6.04054 3.05424 3.98146 2.94333 2.26803 2.2181 4.35917 2.06597 5.52365
threshold=18.500000000000004 213.50000000000003 1.5000000000000002 1.5000000000000002 306.50000000000006 266.50000000000006 265.50000000000006 12.500000000000002 1.5000000000000002 2.5000000000000004 2.5000000000000004 132.50000000000003 5.5000000000000009 2.5000000000000004 205.50000000000003
decision_type=2 2 2 2 2 2 2 2 2 2 2 2 2 2 2
left_child=1 -1 3 4 -2 6 9 -3 -9 -4 -6 12 -8 14 -5
right_child=2 7 5 13 10 -7 11 8 -10 -11 -12 -13 -14 -15 -16
leaf_value=-1.1147643395968054 -2.4755065012132835 -3.6271833541580127 -3.2872991115064147 -3.4743624201623344 -3.487601239223745 -2.7754402491515258 -3.8677069066200107 -3.5211607206768214 -2.2209081612233104 -2.4686133478303276 -4.4216734730010439 -4.1731021843429525 -3.3119576308875045 -3.5995196891023005 -4.0963981385277668
leaf_weight=6.3503409326076499 11.304271817207336 26.432047337293625 30.854012489318848 16.889912009239197 5.3529051840305328 22.475552201271057 30.687773197889328 5.5523923337459546 4.0894865691661835 5.1201701760292044 5.0536744594573975 8.0459817051887494 26.13281661272049 14.595809787511824 92.229558885097504
leaf_count=191 340 795 928 508 161 676 923 167 123 154 152 242 786 439 2774
internal_value=-3.55076 -3.10167 -3.62165 -3.83718 -3.17806 -3.36747 -3.49943 -3.45144 -2.96967 -3.17078 -3.94121 -3.68169 -3.61211 -3.95286 -4.00012
internal_weight=311.167 42.4243 268.742 145.426 21.7109 123.316 100.841 36.0739 9.64188 35.9742 10.4066 64.8666 56.8206 123.715 109.119
internal_count=9359 1276 8083 4374 653 3709 3033 1085 290 1082 313 1951 1709 3721 3282
is_linear=0
shrinkage=1


Tree=46
num_leaves=16
num_cat=0
split_feature=2 1 16 6 8 8 4 10 14 6 2 1 2 4 10
split_gain=127.457 64.833 55.1382 30.5148 28.8161 13.1523 16.8115 11.9419 11.701 10.2702 13.7237 10.1427 24.7621 9.44697 8.45083
threshold=303.50000000000006 2.5000000000000004 1.0000000180025095e-35 1.5000000000000002 3.5000000000000004 1.5000000000000002 1.5000000000000002 1.5000000000000002 96.500000000000014 2.5000000000000004 205.50000000000003 5.5000000000000009 205.50000000000003 1.5000000000000002 1.0000000180025095e-35
decision_type=2 2 2 2 2 2 2 2 2 2 2 2 2 2 2
left_child=1 4 -2 11 7 6 -4 -1 -9 10 14 13 -13 -3 -5
right_child=2 3 5 9 -6 -7 -8 8 -10 -11 -12 12 -14 -15 -16
leaf_value=-1.4173873139145878 -2.3413944805454783 -1.2701856297692777 -1.3896963684992745 -0.66969434220361135 -1.7081046900938759 -1.9911577745436826 -1.8018533828596826 -1.092415739118779 -0.68306080958663473 -1.0181168023247464 -1.5644462155874403 -1.3824657243316079 -2.0994727712672563 -1.7444355388349124 -1.3265525087288224
leaf_weight=42.745866984128952 203.5030509531498 71.379462093114853 160.34813261032104 31.292428940534592 54.608356386423111 147.66754049062729 258.52045869827271 118.42036834359169 170.16536521911621 82.219323098659515 196.54917785525322 70.561359375715256 151.75805407762527 102.05831399559975 52.358573913574219
leaf_count=209 995 349 784 153 267 722 1264 579 832 402 961 345 742 499 256
internal_value=-1.58038 -1.36868 -1.89492 -1.53852 -1.03504 -1.73454 -1.64407 -0.924104 -0.851038 -1.32888 -1.42007 -1.73051 -1.8719 -1.54925 -1.08083
internal_weight=1914.16 1144.12 770.039 758.177 385.94 566.536 418.869 331.332 288.586 362.42 280.2 395.757 222.319 173.438 83.651
internal_count=9359 5594 3765 3707 1887 2770 2048 1620 1411 1772 1370 1935 1087 848 409
is_linear=0
shrinkage=1


Tree=47
num_leaves=16
num_cat=0
split_feature=1 14 4 10 5 3 12 6 14 10 9 14 17 16 2
split_gain=96.4344 12.968 5.9144 6.26577 13.8734 9.11112 7.97488 6.39794 4.05085 4.46468 3.44968 7.64927 8.89994 6.34911 4.16768
threshold=3.5000000000000004 1.0000000180025095e-35 2.5000000000000004 1.0000000180025095e-35 1.5000000000000002 180.50000000000003 1.0000000180025095e-35 1.5000000000000002 331.00000000000006 2.5000000000000004 41326.500000000007 72.500000000000014 5.5000000000000009 1.0000000180025095e-35 285.50000000000006
decision_type=2 2 2 2 2 2 2 2 2 2 2 2 2 2 2
left_child=1 -1 3 5 -5 7 -6 -3 -8 -10 11 12 -2 14 -14
right_child=10 2 -4 4 6 -7 8 -9 9 -11 -12 -13 13 -15 -16
leaf_value=-1.8432710828080348 -1.8006724924189228 -0.96952200708018488 -1.2473845252992 -1.3602485384891474 -1.4462368095399285 -1.284599687573365 -0.95696615763449522 -0.56715851410750628 -1.3725537055882615 -0.97690559615720229 -1.6064157548182649 -1.4089128438189551 -1.3515898632385241 -1.0302185976030687 -1.8936892923317314
leaf_weight=24.840770751237869 135.27152389287949 101.57661703228951 258.73753297328949 182.49358314275742 44.762576997280121 54.354557782411575 387.61440300941467 64.684383243322372 56.076195359230042 58.043781161308289 439.75542676448822 404.83077877759933 32.219217509031296 31.235424607992172 25.332667201757431
leaf_count=101 550 413 1052 742 182 221 1576 263 228 236 1788 1646 131 127 103
internal_value=-1.3186 -1.12806 -1.11335 -1.07684 -1.12152 -0.929177 -1.0418 -0.812981 -1.00572 -1.17132 -1.53847 -1.49096 -1.63921 -1.3932 -1.59021
internal_weight=2301.83 1233.18 1208.34 949.606 728.991 220.616 546.497 166.261 501.734 114.12 1068.65 628.89 224.059 88.7873 57.5519
internal_count=9359 5014 4913 3861 2964 897 2222 676 2040 464 4345 2557 911 361 234
is_linear=0
shrinkage=1


Tree=48
num_leaves=16
num_cat=0
split_feature=5 17 2 17 1 3 9 2 10 17 13 14 3 2 14
split_gain=16.6338 29.7868 13.4676 64.7924 14.346 24.6341 10.5258 15.744 5.2154 20.2745 3.56688 5.41734 3.18547 2.26406 23.5868
threshold=1.5000000000000002 31.500000000000004 243.50000000000003 49.000000000000007 8.5000000000000018 306.50000000000006 41384.000000000007 300.50000000000006 1.5000000000000002 3.5000000000000004 28.500000000000004 443.00000000000006 215.50000000000003 282.50000000000006 524.50000000000011
decision_type=2 2 2 2 2 2 2 2 2 2 2 2 2 2 2
left_child=1 -1 4 8 5 -2 7 -5 9 10 -4 -12 -6 -10 -15
right_child=2 -3 3 6 12 -7 -8 -9 13 -11 11 -13 -14 14 -16
leaf_value=-1.7997597714246214 -1.5657253539647376 -0.9596439645087147 -2.021159384296408 -1.7160391119435827 -1.5902171257251438 -0.56920966471593237 -1.4723398524833435 -0.85118158964859902 -1.6267113004874185 -1.3326567509925378 -1.8279590304921356 -1.3915694570639818 -1.2142884222480652 -1.8402682940062935 -1.0747339962097924
leaf_weight=398.07896089553833 42.742452532052994 47.208081901073456 47.420730918645859 24.029338985681534 90.801130503416061 59.116426885128021 50.185168147087097 169.69391602277756 317.91028127074242 212.22371953725815 99.945038259029388 39.765366286039352 29.983511477708817 314.93319502472878 46.144836813211441
leaf_count=1872 201 222 223 113 427 278 236 798 1495 998 470 187 141 1481 217
internal_value=-1.54041 -1.71069 -1.49133 -1.52964 -1.26379 -0.987372 -1.06419 -0.958458 -1.63492 -1.54424 -1.78418 -1.70375 -1.4969 -1.68825 -1.74243
internal_weight=1990.18 445.287 1544.9 1322.25 222.644 101.859 243.908 193.723 1078.34 399.355 187.131 139.71 120.785 678.988 361.078
internal_count=9359 2094 7265 6218 1047 479 1147 911 5071 1878 880 657 568 3193 1698
is_linear=0
shrinkage=1


Tree=49
num_leaves=16
num_cat=0
split_feature=14 6 2 10 16 10 8 17 14 1 16 14 9 16 1
split_gain=93.3116 27.9879 96.3636 32.7841 137.153 76.2094 23.6039 26.3418 13.1011 71.3856 36.668 13.0945 12.1575 85.1367 69.5672
threshold=1.0000000180025095e-35 2.5000000000000004 292.50000000000006 1.5000000000000002 1.0000000180025095e-35 1.0000000180025095e-35 1.5000000000000002 1.5000000000000002 124.50000000000001 5.5000000000000009 1.0000000180025095e-35 180.50000000000003 41326.500000000007 1.0000000180025095e-35 4.5000000000000009
decision_type=2 2 2 2 2 2 2 2 2 2 2 2 2 2 2
left_child=-1 2 12 5 -5 8 -6 -8 9 -4 -10 -9 13 -2 -14
right_child=1 -3 3 4 6 -7 7 11 10 -11 -12 -13 14 -15 -16
leaf_value=0.0041198660064301063 -1.0954801400406775 -1.7433323248239143 -1.2896678215560713 -0.028435298862666603 -1.5475562776564529 -0.25921289177313778 -0.44292983695288968 -0.9979667603370258 -0.38222880982177798 0.50222229104114491 -1.6729161924941485 -1.7066080843903142 -1.6591045185086026 -1.8189136477084165 -0.90124419480210038
leaf_weight=56.943379700183868 263.04817879199982 129.50839453935623 112.37498825788498 86.170955121517181 331.07788020372391 152.94084724783897 46.360981702804565 52.660028129816055 28.471689850091934 27.715804278850555 97.005314975976944 51.652180701494217 285.47278407216072 426.31946218013763 210.38815066218376
leaf_count=226 1044 514 446 342 1314 607 184 209 113 110 385 205 1133 1692 835
internal_value=-1.26044 -1.29173 -1.2648 -1.03389 -1.19039 -0.821526 -1.39823 -1.07012 -1.14536 -0.935157 -1.38005 -1.34886 -1.45697 -1.54287 -1.33755
internal_weight=2358.11 2301.17 2171.66 986.431 567.922 418.509 481.751 150.673 265.568 140.091 125.477 104.312 1185.23 689.368 495.861
internal_count=9359 9133 8619 3915 2254 1661 1912 598 1054 556 498 414 4704 2736 1968
is_linear=0
shrinkage=1


Tree=50
num_leaves=16
num_cat=0
split_feature=2 17 15 17 6 3 2 14 14 13 17 5 17 6 14
split_gain=30.7493 6.30817 5.91508 12.5 23.5259 6.85326 12.8545 3.23764 4.32727 3.1395 3.03729 2.93073 2.68074 3.55262 2.64029
threshold=306.50000000000006 387.00000000000006 1.0000000180025095e-35 16.500000000000004 2.5000000000000004 1.0000000180025095e-35 213.50000000000003 124.50000000000001 84.500000000000014 69.500000000000014 43.000000000000007 1.5000000000000002 13.500000000000002 1.5000000000000002 124.50000000000001
decision_type=2 2 2 2 2 2 2 2 2 2 2 2 2 2 2
left_child=2 12 11 4 5 6 9 8 10 -4 -5 14 13 -2 -1
right_child=1 -3 3 7 -6 -7 -8 -9 -10 -11 -12 -13 -14 -15 -16
leaf_value=-3.7906848171766585 -4.060386675071566 -3.0044267015420845 -2.6894829745512046 -3.145674191222843 -1.329632489786845 -2.783637646119741 -3.4941249183167926 -4.0278649502170305 -2.4540110291374626 -1.501564159639003 -4.1379270019856751 -3.8790449124510356 -4.2024233834026878 -3.5712785434996279 -2.7710994891677436
leaf_weight=4.7544437348842603 44.286147236824036 6.3503409326076499 6.350340932607649 5.4858966171741503 7.1150416731834403 28.692901700735092 73.311527520418167 20.314441412687302 3.5575208365917197 3.4245294034481049 7.0485459566116333 25.80033802986145 50.171018153429031 22.342560768127441 5.4526487588882446
leaf_count=143 1332 191 191 165 214 863 2205 611 107 103 212 776 1509 672 164
internal_value=-3.58531 -3.97506 -3.33442 -3.24975 -3.09276 -3.20499 -3.3505 -3.76245 -3.42739 -2.27331 -3.70365 -3.6996 -4.02784 -3.89637 -3.24602
internal_weight=314.458 123.15 191.308 155.301 118.894 111.779 83.0864 36.4064 16.092 9.77487 12.5344 36.0074 116.8 66.6287 10.2071
internal_count=9458 3704 5754 4671 3576 3362 2499 1095 484 294 377 1083 3513 2004 307
is_linear=0
shrinkage=1


Tree=51
num_leaves=16
num_cat=0
split_feature=6 2 2 16 16 10 14 8 10 13 4 17 3 6 1
split_gain=32.3919 55.4282 51.1173 31.1398 30.2062 25.989 12.7937 13.9169 12.6195 10.0152 8.39858 8.14565 7.37072 6.22156 5.71234
threshold=1.5000000000000002 299.50000000000006 303.50000000000006 1.0000000180025095e-35 1.0000000180025095e-35 1.5000000000000002 140.50000000000003 1.5000000000000002 1.0000000180025095e-35 46.500000000000007 1.5000000000000002 4.5000000000000009 306.50000000000006 2.5000000000000004 30.500000000000004
decision_type=2 2 2 2 2 2 2 2 2 2 2 2 2 2 2
left_child=1 5 12 -3 -4 8 -7 -8 10 -6 -1 -12 13 -2 -15
right_child=2 3 4 -5 9 6 7 -9 -10 -11 11 -13 -14 14 -16
leaf_value=-1.2638974780891359 -1.2399411728918519 -2.3622928088177044 -2.2587010853843936 -1.7811213518024047 -1.6961723862916638 -1.4974882718078568 -0.95472507006490404 -1.5248655223454461 -1.9869527974302577 -1.2297458859055097 -1.4350000941980694 -2.1186492140491993 -1.6236700404626705 -0.78154248306385254 -1.3363241252709623
leaf_weight=61.971280843019485 378.57703247666359 124.55613872408867 82.219323098659515 354.85205367207527 140.30461603403091 216.59269443154335 129.26022934913635 64.016537636518478 113.30722635984421 68.516102582216263 35.587468206882477 34.155788451433182 41.518712908029556 62.584857881069183 26.383812636137009
leaf_count=303 1851 609 402 1735 686 1059 632 313 554 335 174 167 203 306 129
internal_value=-1.56507 -1.67375 -1.41099 -1.93212 -1.74528 -1.48462 -1.33059 -1.14357 -1.74227 -1.54313 -1.53178 -1.76981 -1.21988 -1.18402 -0.946064
internal_weight=1934.4 1134.3 800.104 479.408 291.04 654.891 409.869 193.277 245.022 208.821 131.715 69.7433 509.064 467.546 88.9687
internal_count=9458 5546 3912 2344 1423 3202 2004 945 1198 1021 644 341 2489 2286 435
is_linear=0
shrinkage=1


Tree=52
num_leaves=16
num_cat=0
split_feature=4 16 14 17 1 14 14 16 2 17 10 2 3 2 17
split_gain=8.16148 46.2124 4.2302 54.4716 16.701 8.06132 5.54183 8.74857 5.92832 3.54884 3.21336 2.84542 2.61934 6.89708 2.35043
threshold=1.5000000000000002 1.0000000180025095e-35 18.500000000000004 6.5000000000000009 5.5000000000000009 331.00000000000006 124.50000000000001 1.0000000180025095e-35 299.50000000000006 1.5000000000000002 1.5000000000000002 266.50000000000006 103.50000000000001 305.50000000000006 1.5000000000000002
decision_type=2 2 2 2 2 2 2 2 2 2 2 2 2 2 2
left_child=2 -2 4 6 -1 10 8 -8 9 -4 -5 -12 13 -7 -9
right_child=1 -3 3 5 -6 12 7 14 -10 -11 11 -13 -14 -15 -16
leaf_value=-1.1031923160004122 -1.606503660889617 -1.2281010597236717 -1.6642312040130802 -0.95616464043276483 -1.8341992180525974 -0.80716374234839072 -1.549001223668264 -1.35581263561748 -1.879076053830472 -1.3196429660485007 -0.87478378201468521 -0.59557350607883874 -1.3828571467200372 -1.4594673482943152 -1.0420842717624823
leaf_weight=77.473690956830978 483.53421086072922 970.51169687509537 53.862661331892014 101.33066880702972 52.386971980333328 45.008525222539902 111.9064424932003 36.15438911318779 51.157230854034424 67.143865495920181 67.881710171699524 78.949380308389664 33.203010410070419 25.332667201757431 70.341192424297333
leaf_count=315 1966 3946 219 412 213 183 455 147 208 273 276 321 135 103 286
internal_value=-1.30806 -1.35394 -1.23158 -1.20245 -1.39809 -0.91698 -1.45952 -1.35376 -1.59368 -1.47303 -0.819187 -0.724656 -1.15136 -1.04208 -1.14859
internal_weight=2326.18 1454.05 872.132 742.272 129.861 351.706 390.566 218.402 172.164 121.007 248.162 146.831 103.544 70.3412 106.496
internal_count=9458 5912 3546 3018 528 1430 1588 888 700 492 1009 597 421 286 433
is_linear=0
shrinkage=1


Tree=53
num_leaves=16
num_cat=0
split_feature=2 17 14 3 14 10 17 6 14 13 0 6 2 14 17
split_gain=13.5494 85.2656 31.6575 8.06118 10.1421 6.62928 21.0057 8.89597 7.2392 6.33046 6.15237 5.99456 10.0844 8.25329 5.7341
threshold=221.00000000000003 94.000000000000014 331.00000000000006 299.50000000000006 6.5000000000000009 1.0000000180025095e-35 11.500000000000002 1.5000000000000002 1614.5000000000002 151.50000000000003 1.5000000000000002 1.5000000000000002 306.50000000000006 12.500000000000002 3.5000000000000004
decision_type=2 2 2 2 2 2 2 2 2 2 2 2 2 2 2
left_child=1 14 3 11 -5 6 -4 8 9 10 -7 12 13 -2 -1
right_child=2 -3 5 4 -6 7 -8 -9 -10 -11 -12 -13 -14 -15 -16
leaf_value=-1.7464691567472348 -2.1189885462638394 -0.30283015838623517 -1.4973985657499926 -0.84910172031984843 -1.5628474930888838 -1.0050357072915825 -0.53669379231190428 -1.6364469308537253 -0.81582381105983881 -1.7365992951421352 -1.4355296098368875 -1.7728713356906531 -1.4972249515173035 -1.6802739504200037 -1.4238238733143889
leaf_weight=147.15312016010284 48.909274041652679 61.455566078424454 56.13934063911438 25.305233091115952 93.352918714284897 55.076095551252365 38.276823163032532 111.85338324308395 28.282319337129593 35.725034952163696 83.571063905954361 462.93691125512123 327.26683804392815 347.89379274845123 88.036693274974823
leaf_count=692 230 289 264 119 439 259 180 526 133 168 393 2177 1539 1636 414
internal_value=-1.54897 -1.35164 -1.58311 -1.65915 -1.41063 -1.34031 -1.10792 -1.41007 -1.28512 -1.36124 -1.26452 -1.684 -1.62717 -1.73435 -1.6257
internal_weight=2011.23 296.645 1714.59 1305.66 118.658 408.924 94.4162 314.508 202.655 174.372 138.647 1187.01 724.07 396.803 235.19
internal_count=9458 1395 8063 6140 558 1923 444 1479 953 820 652 5582 3405 1866 1106
is_linear=0
shrinkage=1


Tree=54
num_leaves=16
num_cat=0
split_feature=10 1 10 17 2 14 8 6 14 2 14 2 6 2 17
split_gain=39.7149 237.037 86.6584 66.371 65.9286 52.4493 38.7075 24.8816 35.1971 33.5498 24.526 20.3386 19.3906 54.9809 24.0392
threshold=1.5000000000000002 3.5000000000000004 1.0000000180025095e-35 37.500000000000007 303.50000000000006 12.500000000000002 3.5000000000000004 2.5000000000000004 62.500000000000007 306.50000000000006 96.500000000000014 306.50000000000006 2.5000000000000004 243.50000000000003 3.5000000000000004
decision_type=2 2 2 2 2 2 2 2 2 2 2 2 2 2 2
left_child=2 5 3 4 -1 -2 11 8 -3 -10 -6 -7 13 -4 -15
right_child=1 7 12 -5 10 6 -8 -9 9 -11 -12 -13 -14 14 -16
leaf_value=-1.4633518149176223 -0.94295313830267835 -0.33408060037178455 -1.3950567230698807 -1.9372133034126922 -0.22309453269826629 -1.9568022942461116 -1.2233666563338561 -1.5742470805125204 -1.1547907272613815 -0.38064772783943512 -1.0168985996315867 -1.6222232638149716 -1.5058643401924907 -0.090893412547376595 -0.70176817905913991
leaf_weight=262.79621693491936 92.97392526268959 152.1849616765976 81.887603551149368 147.64964824914932 73.572862267494202 442.19305917620659 127.49269968271255 37.03839299082756 196.02632480859756 78.360137552022934 82.643489122390747 308.40131306648254 30.739346563816071 106.83182740211487 162.26343595981598
leaf_count=1043 369 604 325 586 292 1755 506 147 778 311 328 1224 122 424 644
internal_value=-1.27136 -1.37632 -1.11258 -1.36068 -1.15752 -1.65718 -1.7328 -0.788048 -0.719783 -0.933709 -0.643042 -1.81933 -0.744281 -0.677581 -0.459249
internal_weight=2383.06 1434.67 948.384 566.662 419.013 971.061 878.087 463.61 426.571 274.386 156.216 750.594 381.722 350.983 269.095
internal_count=9458 5694 3764 2249 1663 3854 3485 1840 1693 1089 620 2979 1515 1393 1068
is_linear=0
shrinkage=1


Tree=55
num_leaves=16
num_cat=0
split_feature=17 6 10 5 2 13 1 17 14 14 14 3 2 13 4
split_gain=16.2655 39.2153 19.5119 8.71621 12.3221 10.0961 6.45423 37.5279 4.25876 3.12425 2.98867 2.8518 4.93282 5.26978 2.72315
